#include "Copter.h"

#if MODE_GUIDED_ENABLED == ENABLED

static const int structure[3][2] = {{26, 256},{256, 256},{256, 12}};

static float output_0[256];
static float output_1[256];
static float output_2[12];
static const float layer_0_weight[256][26] = {{0.045900524,0.08354734,-0.029567515,-0.2106447,0.04462196,0.093827516,-0.09496155,-0.029858394,0.097103514,0.038260393,0.054384306,-0.20271969,0.23514125,0.050857775,-0.1679822,-0.020266676,-0.06865998,0.13581872,0.17933775,-0.091927566,0.2076476,-0.35448098,-0.22425847,0.21248387,-0.088727094,0.16505212},{-0.26760197,-0.06895724,-0.05065916,0.16719867,0.010328737,-0.113833025,-0.064294584,0.045484178,0.05306729,0.14564116,0.123184875,0.14465478,-0.107588716,-0.12697138,-0.08326312,0.0057578725,0.030655019,-0.04228683,-0.22210105,-0.19349812,-0.11671472,-0.112446904,0.029368138,0.13299198,-0.1831414,-0.21861733},{0.1188948,-0.25622934,0.3834451,0.010415027,0.19770145,-0.12754197,-0.007867753,-0.050389376,-0.050182495,-0.09582665,-0.037882015,0.08959073,-0.008459544,0.11207869,0.15127076,-0.07477926,0.03592363,-0.030332124,0.14444374,0.054124903,0.057163585,-0.27338096,0.19689518,-0.30324444,0.03580577,-0.031322453},{-0.21462932,-0.0849474,-0.0686958,0.1792483,-0.14699794,0.23759823,0.021281557,0.20912462,-0.09014987,0.046659935,-0.06357545,0.10820071,-0.08200688,-0.064432375,0.20631905,-0.041681785,0.038486775,0.030648576,0.044824928,-0.08605086,0.074284926,-0.02263347,0.43573296,-0.09865474,0.08584903,0.045509737},{0.06221106,-0.1944613,0.016693264,0.12478153,-0.0074094655,0.002310107,0.18019712,0.027037945,0.05197478,0.28881943,0.04483132,0.1375715,-0.03913225,-0.026432794,0.11151603,-0.06361744,0.04181384,-0.0733806,-0.011098773,0.120513536,0.3719817,-0.11636473,-0.41960523,0.014067047,-0.058266472,-0.15743828},{-0.041703057,0.08466056,0.0789802,0.12468827,-0.23161629,0.06224223,0.06804482,-0.16942663,-0.11600088,-0.024631035,0.062904425,-0.12587109,0.16204889,0.13849568,-0.13101849,-0.017187681,0.051955357,0.014631892,-0.28309357,-0.3958796,0.24732178,-0.23094101,0.28056842,-0.13728343,-0.06588966,0.21412979},{0.19210643,0.18198743,0.18818517,0.022459596,0.18595447,0.18224534,0.04134594,0.13048978,0.006775568,0.05149369,0.13523206,0.018913588,0.06599799,-0.012053075,-0.0797247,0.03756812,0.07810203,0.07858966,0.090184726,-0.3857375,0.042435583,-0.39987218,0.3748069,0.027762901,-0.06022232,-0.1616336},{-0.11532322,-0.14461908,-0.16713232,0.12005035,-0.040945236,-0.17397164,-0.02968885,0.08827726,0.054940596,0.11685721,-0.06471049,-0.031491008,-0.006804702,0.04877324,-0.05175918,0.024496835,0.07755726,-0.035954498,0.1091407,-0.18090703,-0.3916335,-0.024170047,0.22404492,0.40239507,0.07587039,-0.46886587},{0.26615453,0.20976368,-0.22267607,-0.030386427,0.0369286,-0.12845257,-0.15918712,-0.12020047,0.09944162,0.02237497,0.06678643,0.04442971,0.03224389,0.05049706,0.03335558,0.09495701,-0.022889553,0.018366797,-0.13538837,-0.032124836,-0.036204625,0.2380658,0.034293495,0.25837156,0.009220048,0.28895417},{-0.03994373,-0.105337866,0.116864234,-0.0801714,-0.07324278,0.08535583,-0.0039728484,0.10510894,0.0736989,-0.26286042,-0.05584628,0.06445733,0.20778,0.06749038,-0.2483536,0.0048215897,0.002124016,-0.008692487,0.490304,-0.20274587,0.324234,0.110557675,-0.3590476,0.1553171,0.28493756,-0.21085183},{0.07570592,-0.1879332,-0.08863662,0.026973538,0.2935875,-0.0046031093,-0.15119863,0.0552995,0.06016581,-0.16132084,-0.08507813,-0.008414618,-0.036457144,-0.028505417,-0.008901658,0.14138606,-0.09866007,-0.13679986,0.017214611,0.26190487,-0.19707343,0.053671613,0.021982202,0.49288106,-0.24269184,0.018084826},{-0.22046831,0.0013988878,-0.33453444,-0.099531,0.10294156,0.24129815,-0.17252974,0.10183779,-0.036501113,-0.03750408,-0.19591394,-0.014230856,0.12797247,0.09298283,-0.18375239,-0.12219372,0.003978735,-0.004392648,-0.20514402,0.28199577,-0.3405631,-0.17096484,0.33925614,0.083127834,-0.22250795,-0.030853642},{0.119372524,-0.051083185,0.040715057,-0.0848315,0.014554138,-0.18721955,0.17235887,-0.049537554,-0.04228306,0.014188027,-0.077486716,-0.0618281,-0.020070266,-0.10796817,-0.025430268,0.115808256,-0.07487055,0.10796616,0.24786994,0.10273131,0.24613343,0.26890853,0.20847575,-0.026284672,-0.2505767,0.09697974},{0.36705992,0.24104963,-0.22343966,0.081996344,0.08888462,0.13501456,0.12840548,-0.019716315,-0.09608417,-0.06599868,-0.09213669,0.04592215,0.117721386,-0.07036889,-0.03437792,0.02466369,0.009561455,0.005983671,-0.006192033,0.008422605,-0.15106598,-0.16517334,0.057315007,0.18241541,0.1594204,0.11027105},{-0.33346093,0.16628802,-0.21419516,0.080854036,-0.29049912,-0.12644088,0.07718642,0.017279878,0.16532294,0.009618397,-0.14117967,-0.047902077,-0.11792379,0.25603035,-0.18230334,-0.03023635,-0.13229215,0.07207703,-0.11626115,0.24126633,0.10005361,0.19761147,-0.14315791,-0.084763505,-0.055015575,0.24498118},{0.1088296,0.15256144,0.037149146,-0.010692485,-0.07513846,-0.093901806,0.00600416,0.22257,-0.03383249,0.038513318,0.004521171,-0.15527642,0.18221699,-0.057114292,0.055909652,0.12663247,0.1190088,0.068753794,-0.19392185,-0.15045276,-0.21955708,0.12705277,-0.122310705,-0.24096964,-0.045662213,-0.5814923},{0.06775638,0.038384654,0.018178156,-0.104115844,0.02238607,-0.036155373,0.032172207,0.07995786,-0.032450516,-0.16485776,-0.19881007,0.029224604,0.050073687,0.010830433,0.31012303,-0.020037998,0.07567173,0.19584158,0.2513406,0.0010258387,0.08532629,0.003969217,0.29459286,-0.0461368,-0.3217606,-0.12122054},{-0.09771703,0.011372557,0.1152523,-0.0048084995,-0.16778788,0.035996277,-0.05145128,-0.06839467,-0.1540425,0.17234938,0.13156562,-0.08901022,-0.17208697,0.109351486,0.113206714,0.0025315778,-0.05490902,-0.019355986,0.044055007,-0.01846955,0.012567603,-0.34489697,0.22095747,0.011471976,-0.12010266,0.470648},{-0.0041273753,0.039826605,-0.09127087,0.14515883,0.042190555,0.13458936,0.082832575,0.2723288,0.0398014,-0.02756133,0.056463495,0.07687776,-0.027592653,-0.048810802,-0.023266265,-0.02559198,-0.03937411,0.008088855,0.2822635,0.13645178,-0.18181919,0.8924998,-0.20797473,0.083001204,-0.04372977,0.03130176},{-0.46912104,0.079501756,0.06723465,0.012774215,-0.026375525,0.08055252,-0.008609295,-0.077668376,-0.05663426,-0.042366814,0.140923,-0.026999436,0.037172433,-0.11847568,0.020158393,0.0076754107,0.044092156,0.1383582,-0.06876357,-0.20491596,-0.10869093,-0.11600838,-0.02330503,0.15983832,0.07532556,0.016232686},{0.15077318,0.36600754,-0.20748015,0.03801231,0.008407713,0.07519839,0.11932549,-0.06744766,-0.04239158,-0.13221543,-0.13581851,0.117604345,0.25466955,0.23421238,-0.047934886,0.04842491,0.013898456,0.024873177,0.038742773,-0.08941834,0.03775847,0.013547356,-0.03713358,-0.02980464,0.100070104,-0.14321356},{-0.28996828,0.016296536,0.044789623,0.015669975,0.004841639,-0.13636196,-0.054615583,0.12549087,-0.18086448,0.062449206,0.056071054,0.15295415,-0.06717295,-0.027599456,-0.014513184,-0.0062977932,-0.049650215,-0.02127854,-0.046453644,0.17375073,-0.078945205,-0.30619028,-0.11178231,0.07210379,0.47839653,0.041411076},{-0.18330912,0.40747103,0.29373115,-0.25525692,0.019122863,-0.02325557,0.045566637,-0.098271854,0.20752552,0.15016411,-0.14447202,-0.17229854,-0.16387187,0.114413306,0.15553473,-0.082112364,-0.030540638,0.021823067,-0.09625329,-0.050759155,0.027982883,0.09794662,-0.021485033,-0.09054924,-0.12123861,-0.08836429},{-0.033730406,0.041878175,0.15831052,0.0034203734,-0.07655914,-0.018052075,0.0156091815,0.18355548,-0.1401996,-0.088730454,0.03948676,0.06550059,-0.017603049,-0.033802293,-0.1665251,-0.021933347,-0.023151914,0.012343631,-0.42796132,0.44389063,0.3338635,-0.02718193,-0.10893243,0.25881636,-0.067838006,0.015135194},{0.09284977,0.24702917,0.25191784,0.10542683,-0.059274394,0.06301258,-0.14574337,0.15721956,-0.14389203,0.19431464,0.026598722,0.11627121,0.057611115,-0.09498001,-0.06452804,0.10090536,0.07791609,0.02568704,0.23415352,-0.37487096,-0.113190256,-0.52036744,-0.31577483,0.11273658,-0.12434655,-0.23096628},{-0.14686117,0.36758363,-0.028543884,0.1715425,-0.4169944,-0.039267175,0.030683871,0.028908981,0.039911486,-0.0029568202,0.0837969,-0.02670461,-0.0048245057,0.17215401,0.058293894,0.07918289,-0.009422978,0.040224742,0.48416117,0.16550204,-0.052534766,-0.097633906,0.1022141,0.017896924,-0.13402009,-0.27961546},{0.053490188,-0.31568474,-0.07610936,-0.0047432133,-0.15290125,0.014684583,0.02344046,-0.13988563,0.10713406,-0.17030118,-0.024194816,0.16604544,-0.04994703,-0.13122258,0.18079539,-0.08317485,-0.014571745,-0.032450426,0.30976474,0.2248555,0.15358086,-0.024783425,-0.1548257,0.29838964,-0.37577853,-0.13238734},{0.1329522,0.08598653,0.04893917,0.07800823,0.044287227,-0.010781816,-0.041996207,0.14260124,0.105132416,-0.26481345,-0.15972468,-0.004953059,0.03801195,0.21325319,-0.03927939,0.027881538,0.00599707,-0.01146877,0.061042096,0.44640827,-0.05687396,0.28177366,0.011316373,-0.18881151,-0.006013691,0.0065174852},{-0.3093515,0.65151185,0.14081815,0.01712427,0.011262288,-0.049443208,0.030660156,0.0680837,-0.07020939,0.19893435,0.10337699,0.032761373,0.17192842,0.107575126,-0.07842945,0.04765486,-0.0017826197,-0.06528314,-0.025934126,-0.051436704,-0.14540295,0.019303218,-0.13469212,-0.120728545,-0.3892475,0.08056965},{-0.16600458,0.3372141,0.20842166,-0.2192666,0.029237675,-0.10590162,-0.06939721,0.17477977,0.15569267,0.1673566,-0.059922915,-0.11852348,-0.15021181,0.2044286,-0.09018819,0.077622876,0.0076698163,-0.0038608413,-0.16969511,-0.030193593,-0.1381297,-0.06382177,0.0220011,0.15381718,-0.18283114,-0.025429232},{-0.1306345,-0.10525082,0.23079598,0.031990703,-0.040304273,0.16164231,0.0031719636,-0.10397794,0.020183168,-0.07041555,-0.018477961,-0.10536427,0.026258457,-0.07252093,-0.033382133,0.034155533,0.13538054,-0.11411198,-0.43425062,0.21497917,-0.22902462,0.26030898,0.30756178,-0.14889307,-0.07833261,0.35771734},{0.11750625,-0.02726518,-0.30734953,-0.0027152526,-0.14383452,0.06288146,0.016279627,-0.00053031766,-0.042333353,0.12987015,-0.0011175993,0.036937494,0.089503825,-0.031429954,-0.031043133,0.09699683,-0.038154077,0.078105144,-0.0651482,0.08360148,0.17917967,-0.11171233,0.13478978,0.19784327,-0.022381667,0.4380806},{0.117590204,-0.18405223,-0.44682932,0.0475088,0.055499896,0.052760784,0.10918946,0.047086082,-0.10570723,-0.05098517,0.19786935,0.022878516,0.006364182,-0.072586216,-0.11590329,0.021608246,-0.015331668,0.028654981,0.025988586,-0.15338749,-0.111259826,-0.24659814,-0.052242134,-0.28436875,0.18742011,0.11994971},{0.0921911,-0.025794182,0.15571797,0.020423941,0.008984935,-0.14061151,-0.03420054,0.17838007,0.1291588,0.13193858,0.04404312,0.048922937,-0.0063391747,0.107856415,0.03210548,0.0085694315,-0.16040206,-0.07736028,-0.11934405,0.12862757,-0.3427205,0.18928918,0.021035474,-0.2891838,0.030696604,-0.0193739},{0.16834036,0.36659288,0.0057216603,0.18098944,-0.09520372,-0.014713882,0.020365713,0.013868399,0.15811287,-0.043178443,-0.17895068,0.2540908,0.15212709,0.064643875,0.06611455,0.0258871,0.059407633,0.07599954,0.056813594,-0.12924528,-0.02745673,0.14937955,0.053541,-0.15788257,0.1992328,-0.11148249},{0.024548352,0.05163231,-0.20789397,-0.009550751,0.21971019,0.0723002,-0.10497349,-0.049549725,-0.094058976,-0.015632281,0.028001893,0.06280325,-0.03783984,-0.109289,0.08178913,-0.00045671116,0.015412176,-0.0995919,-0.11408682,-0.14824265,-0.0017588412,0.2209231,-0.15252097,-0.12847261,-0.16879104,-0.23098463},{-0.30392736,0.013966236,-0.4402543,0.117994115,-0.023920363,-0.08105779,0.13867605,0.049272902,0.04714051,0.052132323,-0.037354607,0.039969698,-0.16431476,0.1702944,-0.2995572,0.0056284256,-0.036839955,0.04622423,-0.06834327,-0.00030792292,0.041631646,0.09905043,-0.22760089,-0.32454225,-0.07560622,-0.2605317},{0.28985524,0.18136834,0.1342225,-0.08237209,-0.25101617,0.1308242,0.009322468,-0.14495702,0.015187471,-0.315563,-0.036250655,0.008944916,-0.013761941,-0.053648096,-0.20515814,0.057148945,0.14392366,0.09660137,0.1152323,-0.030308167,0.13209239,0.14892216,0.25668168,-0.10879276,0.24113955,0.1434658},{0.0937703,-0.09382008,-0.050688203,0.028177632,-0.132323,0.09313926,0.03170101,0.17752136,-0.1707124,-0.09546427,0.14804628,0.05892433,-0.06445151,-0.0128397755,-0.18163395,0.023710445,-0.058810025,0.09946508,0.43422583,0.32160437,0.17541504,0.0071307896,-0.082212195,-0.053817045,0.13246343,-0.04887135},{0.09167876,0.088148735,0.12803786,-0.022737697,0.028822085,0.32358885,0.020471027,-0.01785869,0.083689496,-0.084399864,0.009132757,-0.22198562,-0.007611092,-0.102814086,-0.10527462,-0.08556208,0.121370316,-0.03791958,0.1351114,0.03555081,-0.1206639,-0.020728635,-0.13395642,-0.25558788,0.44112924,-0.042810056},{-0.13469595,0.13430575,-0.041800827,-0.11432653,0.045992386,-0.0823635,0.100677736,-0.05578543,0.08687512,0.20275518,-0.18994576,-0.1415869,-0.04913375,-0.020508287,-0.054784726,0.009991145,-0.06385586,0.15972252,-0.16272664,0.15027687,-0.056987055,0.28997573,-0.40480873,-0.19744024,-0.20336638,-0.091493666},{0.1045725,-0.41497785,0.029209273,-0.14263086,0.07334763,0.037260987,-0.14682981,0.03276018,-0.09056211,-0.022125892,-0.07957343,-0.050816372,0.023248388,-0.11904896,0.15244374,-0.015053352,0.023274625,-0.051814754,-0.16920173,-0.19467892,0.07284444,-0.11173942,0.30399472,0.19059263,0.1704185,0.136216},{0.041084513,0.038542148,-0.070782974,-0.073060796,0.17823556,0.16195567,0.10247951,-0.13810351,-0.15098874,-0.06571908,-0.117207736,-0.13349211,0.07271999,0.112865984,-0.15078375,0.03615824,0.033065148,-0.101923555,-0.024602985,-0.26290137,-0.11737526,0.2178261,-0.20178227,0.10925664,-0.3146681,0.0127636315},{0.13631555,-0.017196735,-0.18377681,0.09211302,-0.051701363,-0.109519295,-0.06517207,0.19379634,-0.01303866,-0.17419438,-0.26413208,0.23551184,-0.055617608,0.065736316,0.028430717,-0.033505846,-0.039572712,0.040002175,-0.09071105,0.32434934,0.059886687,0.13745695,-0.13180514,-0.56140363,-0.2193416,-0.4143104},{0.16411774,-0.14321703,0.07241168,0.064635776,-0.1231674,-0.09819197,-0.054596607,0.13849449,-0.098460175,-0.052535553,0.18467411,-0.022216296,0.11265516,-0.17384617,0.03417135,-0.0026868617,0.057220917,-0.016638039,-0.3701058,0.084093414,0.4481681,-0.44893232,-0.335487,-0.05376588,-0.27540207,-0.1742175},{-0.07534506,-0.5169245,-0.0017776202,0.08816932,0.034556255,0.05592121,-0.063287705,-0.14638965,-0.0745423,-0.16707951,-0.04093777,-0.07385598,0.1712255,-0.10738143,0.013611642,0.029212272,-0.010874035,-0.063773446,0.22426115,0.21975264,-0.3740035,-0.003901756,0.039488126,-0.040052984,-0.01746498,0.08238464},{0.0375303,-0.0022749195,0.2557015,-0.025501061,-0.052308474,0.11971924,-0.059519246,-0.0235407,-0.004954694,-0.22704646,0.15914905,-0.017027618,0.124387525,0.11709066,0.12232231,0.11838565,-0.035040822,0.17068563,0.17534542,-0.40252635,0.05322736,-0.3232718,0.19561774,-0.3208828,0.21349122,-0.14608921},{-0.14815052,-0.16470073,0.27502808,-0.022905441,0.099859595,-0.123031266,-0.16598853,-0.05280039,0.077858604,-0.029547224,0.050080203,-0.16447757,0.10955917,-0.0006337385,0.103833064,-0.19788538,-0.06336371,0.065034434,0.33399796,-0.19618705,-0.32434645,0.052299276,-0.028753158,0.20027511,-0.1514517,-0.08050326},{0.4296335,0.27630723,-0.2228225,-0.09526226,0.04285154,0.08030612,-0.064459406,0.047665756,0.12141007,-0.12892076,-0.10665935,-0.13077411,0.088033624,0.059554193,-0.06269155,0.019132352,0.05544056,-0.065785855,0.014446144,3.8499355e-05,-0.07145181,0.11118138,0.03347326,-0.15092161,0.06454362,0.09623926},{-0.009170059,0.10667669,0.18911144,-0.076024316,-0.12284958,0.11439993,0.036634006,-0.035221487,-0.0771892,-0.118933834,0.12896284,-0.02568101,0.057383653,-0.03336987,0.21309854,0.08065429,-0.038666163,0.026890121,0.003112326,0.25037214,0.04541735,-0.012922701,0.4591955,-0.29559854,-0.17209513,0.12748672},{-0.02994161,0.33291873,0.022899214,0.043309912,0.019959262,-0.13620731,0.020445056,-0.124796614,0.037808776,0.12809634,0.022809286,0.02786375,-0.034359887,0.087157816,0.0012007547,0.09801523,0.0014280372,0.013909577,-0.5197237,-0.26483616,0.37964576,0.022689106,-0.08102239,0.027752705,-0.02857555,-0.52968436},{-0.15921488,-0.14409865,0.2880873,0.118911,0.2829912,0.1394947,-0.15570995,0.10892121,0.112394385,-0.09001955,-0.07576475,0.05607612,0.069870315,0.08782238,-0.03804935,-0.104146056,-0.0007290746,-0.054166865,0.049699448,-0.0030732611,-0.19788103,0.15048602,0.11749373,0.09595965,-0.03696282,-0.011421723},{-0.07580679,0.069287755,-0.020461302,-0.029482782,0.08365329,0.08878366,0.069632344,-0.034189045,0.13682361,-0.253076,-0.108371496,0.18620682,0.21131967,0.27165756,0.052606545,0.0038769187,0.1495143,-0.03350202,0.06618067,0.36990866,-0.17262927,0.26800227,-0.07598305,-0.23518717,-0.1295726,0.1340675},{-0.095390804,-0.097542986,0.05939364,-0.0062862607,0.12908056,0.031736996,-0.15086056,-0.115176074,0.05685083,0.047801014,-0.069136485,0.0029997274,-0.054635853,0.1708721,-0.14259323,0.0028213887,-0.075844355,0.13106672,-0.029745393,-0.0821269,-0.3312375,0.25414348,0.22737847,-0.048847005,-0.07692806,0.16323847},{-0.04931235,0.15464975,0.11622736,0.010257933,-0.011088867,0.29904237,-0.026039343,0.13411099,0.075408466,-0.036407102,-0.06002982,0.21325748,-0.03774083,0.10079846,0.33810195,-0.074788176,-0.03355468,-0.094063036,0.06749822,0.19502574,0.23514535,0.19954869,-0.21934928,0.042418763,-0.043364357,-0.22687186},{0.17841719,0.0570685,0.18573457,0.06301848,-0.1282628,-0.042579405,0.2588455,0.10752969,0.09610483,-0.11418767,-0.12574212,0.015028781,-0.03252082,0.024318513,0.08855566,-0.026364364,0.094424665,0.06193698,0.051053043,0.08681879,0.18259989,0.029439736,-0.37261412,-0.09336498,0.09822712,-0.10447423},{-0.028623693,0.52986455,0.03555509,-0.034756992,-0.17613235,0.14872326,0.10504722,0.15267055,0.04844096,-0.11385363,-0.03572448,0.14037254,0.0236688,0.1663835,0.031729817,0.062059987,0.002266909,0.101175405,0.023285568,0.119187154,7.069316e-05,-0.21831821,0.043561682,0.042512473,0.08663743,-0.23247206},{-0.01845982,-0.115722194,0.28936845,-0.11110998,0.15584853,0.013024328,0.121711165,-0.11613744,-0.040395096,0.16609363,0.13295405,-0.07945157,-0.109362,0.00090716727,0.1333492,-0.02071608,-0.09491272,0.07091934,-0.006715331,-0.34063447,0.03890804,-0.3399672,0.018239863,0.004051702,0.15277049,0.07923017},{-0.031293776,0.48387668,-0.12208336,-0.04518529,-0.10587699,0.008526083,0.21448448,0.09856907,-0.044354167,-0.01895421,0.0066758143,0.146406,-0.047736704,-0.00699448,-0.030666757,0.070207395,0.02369272,0.010289742,-0.029392578,0.15305221,-0.0030403605,-0.19284245,0.3966689,-0.22787955,-0.270733,0.014383599},{0.23012844,-0.0023173427,0.26691645,-0.14003995,0.063698284,0.017177729,-0.1278001,-0.017917896,0.020078005,-0.08419973,0.06296825,-0.047750436,0.09175158,0.1312788,0.20413536,-0.057505418,0.025564535,0.026282433,0.13186502,0.051785715,0.096166134,-0.099682465,-0.0927638,0.18075104,-0.04690019,0.18001337},{-0.010976792,0.07096553,0.56260026,-0.082217745,-0.050548676,-0.03601938,0.19396193,0.006399655,-0.0644951,-0.02603273,-0.16739313,-0.083006285,0.013065918,0.053711496,0.39768913,0.012280665,0.033862084,0.03346734,-0.072682805,0.0018163436,-0.1501111,-0.024248848,0.1315132,-0.04371266,0.10197965,-0.0024667461},{0.063225456,-0.2557803,0.056783803,0.041643303,0.24955302,0.005831865,-0.29227784,-0.06017465,-0.0904373,0.00023973756,0.17862381,-0.12593646,0.05310549,0.0015663475,-0.044279046,-0.029439265,-0.06473116,0.00068653695,-0.03694317,-0.42962077,0.04903518,-0.066104054,0.14318985,-0.08066627,-0.040880375,0.17672016},{0.036276817,-0.033964816,-0.4020205,0.09620986,-0.20754473,0.10384815,-0.012558312,0.003333419,-1.3124442e-05,0.08234955,0.022362325,-0.0382305,0.053821117,0.008761928,-0.16544639,0.009595905,-0.0020477222,-0.032741237,-0.024495034,0.21738058,0.25821537,-0.33013627,0.017441528,0.027376024,0.3986888,0.07677213},{-0.01027256,-0.06997245,0.01878758,-0.047044568,-0.14524718,-0.20521219,0.08557613,-0.087322496,-0.020801874,0.027612034,0.21860774,0.11762101,-0.19811629,-0.06382022,0.086649224,0.018665219,-0.09824269,0.22092107,-0.13993983,0.11329248,0.14976673,-0.15316309,0.19316995,-0.34856674,-0.07016158,-0.33932176},{0.27167565,-0.12741302,-0.14794572,0.026947338,-0.027794367,0.13094501,0.19232056,0.003515637,0.022702308,-0.022659635,0.17231233,-0.016087985,0.20702949,-0.22960712,0.11107877,0.10969821,0.17902683,0.009739412,0.25687867,0.3820506,-0.062156975,0.20085251,-0.2776817,-0.13717198,0.0018741452,-0.0705666},{0.095483534,0.034282517,0.061444964,-0.0032948721,0.04681967,-0.09622461,-0.036125347,-0.0594234,0.12793845,-0.04178251,-0.19701089,-0.02796962,-0.016466113,0.03522679,-0.09212041,-0.1399329,0.18517394,0.08827995,-0.0660046,0.3215724,-0.0022827478,0.2533882,-0.061467383,-0.20076168,-0.16420308,-0.026114509},{-0.08719421,0.115040794,-0.014758985,0.05341601,0.030364346,0.08794297,-0.06778923,0.15917297,-0.007579766,0.02318685,-0.09816334,-0.06871079,0.19316436,-0.045952152,0.095805004,0.037261803,0.14813864,-0.06507703,0.23481086,0.3036813,-0.075396225,0.05613347,0.24517904,0.04098916,-0.36556816,-0.45989418},{0.25232953,0.11445879,0.02289795,-0.004552579,-0.033061832,0.020068653,0.19904369,0.19614407,0.002935433,-0.11166534,0.020883277,0.15199025,0.10642515,-0.038127176,-0.079771705,0.03277842,0.023706958,-0.048647463,0.39994052,0.12652494,-0.024624817,-0.059218697,-0.11973864,-0.22776246,-0.17219491,-0.16989096},{-0.20059344,-0.0798307,0.025841812,0.117515996,0.020967139,-0.093255304,0.096387014,0.10237388,0.05342711,-0.00850865,0.19275177,0.07523065,0.07504216,-0.07208875,-0.01942279,0.010249457,0.0330884,0.009706867,-0.43727204,0.0946459,-0.26151982,-0.42395186,0.19296469,0.42940217,0.17218554,0.14581838},{-0.046519857,-0.19786789,0.072796665,-0.11450192,0.027874067,-0.10394626,0.052008502,-0.048978552,-0.09621171,0.17174767,0.12840772,-0.08750132,0.0041928585,-0.17240305,-0.07558261,0.023579936,-0.03896922,0.09631773,0.13553694,-0.060016654,-0.10120621,-0.37981665,-0.16864555,0.37289745,0.5306073,-0.02716178},{-0.041507047,-0.013712422,-0.10374226,0.14690845,-0.038517274,0.014039585,-0.08531453,0.10565516,-0.036162294,-0.11072013,-0.09814646,-0.07536943,0.028828466,0.035372727,-0.1324417,0.034500528,0.013541459,-0.015996322,0.3386067,-0.05960697,0.043934483,0.03960524,-0.5050403,-0.42452666,-0.12855074,0.08837477},{-0.14144148,0.0022771913,-0.10646803,-0.022685764,0.19946429,0.053021707,-0.24166459,-0.022857092,0.0037571515,0.006597658,0.043049503,-0.1957418,0.0076531055,-0.09316245,-0.0506779,0.040171243,0.048785158,0.12862825,-0.30995107,-0.037347738,-0.2927767,0.21178655,-0.14679378,0.11129321,-0.16065636,0.02071747},{0.104871675,-0.032587405,0.038030595,-0.11134521,-0.05938678,-0.08654985,-0.051876422,-0.01209732,0.12290825,0.08160609,0.14539544,-0.23296396,-0.19127935,-0.054618414,0.026990002,0.16712429,0.09330496,-0.014531372,0.32822686,0.27110764,0.15125409,-0.15884165,0.19280607,-0.2357896,0.37654093,-0.09056724},{0.08906967,-0.14869522,0.025573771,0.17127064,0.043726265,0.24684694,-0.047837134,0.20293456,0.091242574,0.14760762,-0.14474815,0.30127397,0.03239848,-0.0590054,-0.013884061,0.023097198,-0.024721315,-0.05894454,-0.00890881,0.5685716,-0.024175463,-0.31219882,0.049985737,-0.18615323,-0.3958909,-0.014481686},{0.22172542,0.054307144,-0.035505395,0.11096225,-0.07899001,0.051400866,-0.08747612,0.018037887,-0.039036628,-0.09024613,0.07914168,0.1932,0.1022621,-0.11088413,-0.060876716,0.0060827835,0.010618494,0.0021041345,0.26876026,-0.34024924,-0.2663246,0.47223935,0.49169153,-0.18231,-0.050548166,0.10280127},{-0.02908301,-0.091770396,-0.04935289,0.022064712,0.042190276,0.11826591,-0.010371011,0.06800211,0.047308255,0.09726646,0.124332316,-0.00011004696,0.026124662,0.111980826,-0.07514621,0.034874085,-0.06911134,0.02716408,-0.25912476,0.08577246,-0.59216094,0.4356971,0.18695422,0.3914146,0.2802099,0.025229648},{0.012726044,0.24646533,0.020105286,0.19823349,-0.0026166483,0.012446001,0.15517347,0.06914821,-0.23203309,-0.12974475,0.03889315,0.077885285,-0.0057021813,0.0017747937,0.0485798,-0.008619796,-0.03161107,-0.066369735,0.47282222,0.048357278,0.2628715,0.05777983,0.074385665,0.31646857,0.2368227,-0.34846827},{-0.053105593,-0.097614534,-0.08181207,-0.15988599,0.036952537,-0.0021511666,-0.037514135,-0.1514463,0.13833477,-0.12192377,0.0657564,0.07957522,0.08707362,0.01787721,-0.15177031,-0.12178989,0.052217424,-0.2148476,-0.05319307,-0.26424626,-0.12162186,-0.15242004,-0.16063991,-0.0629848,0.020955853,0.18678732},{0.100942515,-0.2684493,0.22173078,-0.045075912,-0.112933055,0.10485387,0.07555046,-0.07031504,-0.14985652,-0.15271729,0.08206118,0.13098985,0.11063818,-0.059471056,0.19615822,0.0024565093,0.0021351331,0.063332796,-0.06915762,-0.03421153,0.025357874,-0.2288379,0.00042526,0.049352262,0.09656402,-0.06700435},{0.16676645,-0.39889985,-0.16327868,-0.07253808,-0.05454446,-0.0134961065,-0.043279797,-0.0040754597,0.01616183,0.04952628,0.080756225,-0.053449295,-0.09378425,0.053247843,0.034875456,0.04288862,0.05717679,-0.04891347,-0.17276238,-0.07896362,0.048051257,-0.05802675,0.12317228,0.057812504,0.0714305,-0.081164226},{-0.14809039,0.055846266,0.021921298,-0.071756914,-0.029422784,0.10290384,0.008502898,0.02777916,-0.107874975,-0.10009662,0.2510849,-0.049290933,0.07180703,-0.00543308,-0.01375509,0.09281248,-0.04641219,0.061282378,0.23350678,-0.259567,0.042298812,-0.27879184,0.3456144,-0.07084032,0.53271013,-0.20686571},{0.17483318,0.29834172,-0.055020273,-0.05046256,0.1966042,-0.03597831,-0.06431358,-0.14877062,0.17476931,0.09478264,-0.08585811,0.036534183,-0.050600436,-0.02310028,-0.1184552,-0.08317143,-0.040581666,0.027476428,0.03048735,-0.16510591,0.04345761,-0.06981301,-0.0077327676,-0.30672637,-0.17609853,-0.15428732},{0.08114413,0.08713821,-0.11150697,-0.13881972,-0.31340522,0.11716138,0.050809618,-0.057398494,0.121297844,-0.24808249,0.13090922,-0.051241983,0.03742573,-0.1308252,-0.16086239,0.061581243,-0.073094495,-0.02290162,-0.24840264,0.18011874,-0.44137672,-0.27448654,-0.188559,-0.2847261,0.0040027946,0.24341254},{-0.36377594,-0.21808884,0.19404283,-0.11289414,-0.06806959,0.08967685,0.10376185,-0.06386624,-0.003883575,-0.0046611903,0.049453814,-0.044345673,-0.17401679,-0.09315049,0.24414523,0.01963531,0.026858285,-0.0057256026,-0.19155715,0.12880468,-0.07273088,0.13262403,0.20286919,-0.021738568,-0.10486945,-0.029770968},{-0.14585099,-0.2614962,0.09507315,-0.22197326,0.104545,-0.24729213,0.124719486,0.0726395,0.10597407,0.20027496,0.063015245,-0.1058028,0.0070179487,-0.12420464,-0.029210752,-0.019696195,-0.116203114,-0.074484535,0.06738343,-0.25292054,0.23699825,-0.15752892,0.23815362,0.21485974,-0.09319829,0.23844889},{-0.016072933,0.020284455,-0.18777311,0.1831196,-0.06626319,0.09206372,0.034115437,0.055480648,-0.02168163,-0.06488468,0.033088338,0.03629873,0.080086656,-0.054097384,-0.18960717,-0.02705924,0.034017336,-0.024760671,0.6037449,-0.6542979,0.33914667,0.18985587,0.10691199,0.11236597,-0.087879404,0.25173986},{-0.16621426,-0.11055272,-0.05225967,0.05723406,0.08163452,-0.030170955,0.09177602,0.27937403,0.099915825,-0.07495291,-0.07510468,-0.020036593,-0.101857804,0.07063644,-0.073062785,0.0844529,0.044716135,-0.023842951,-0.07708392,-0.071238294,0.19154191,0.036194794,0.25125563,-0.11122898,-0.20043243,-0.098142184},{0.14093845,0.29797608,0.28347027,0.014844963,-0.036096342,0.11996308,-0.060586378,-0.1371759,0.18447477,0.023704747,-0.14090121,-0.25231332,0.14533187,0.048919182,0.11806313,-0.066862084,-0.019979171,-0.056036923,0.0683232,0.26156133,-0.036067855,-0.05811577,-0.09056562,0.027273238,0.0069668903,-0.060575143},{0.26958913,0.07445292,0.0034297898,-0.024661327,0.016141001,-0.008017914,0.023415692,0.13108408,0.05854858,-0.12200574,-0.17546359,0.050050545,0.041872893,0.05014499,-0.024779728,0.13123828,0.0056544994,-0.1369828,-0.092458144,0.07135961,0.024521943,0.15779595,0.157588,-0.29773638,0.061260045,-0.3159718},{-0.039495993,-0.30646482,0.31256863,-0.09228186,-0.021219674,-0.011199409,-0.10290288,-0.028344426,-0.049713615,0.06745788,0.041918688,-0.1768663,0.10027764,-0.08031009,-0.05262793,0.002551727,0.0034868717,-0.0004001798,-0.0064786696,0.06740568,0.07429267,0.2562266,0.32449794,-0.12129697,-0.20916668,-0.084403306},{0.16818313,-0.12873968,0.06567349,-0.0031853474,-0.013550687,0.29952705,0.14668866,-0.03498099,-0.059874967,-0.15427224,0.056414187,-0.163512,0.056696575,-0.064985946,0.039743967,0.07920949,0.18125182,0.12012797,0.25344715,0.066730045,0.16029567,0.25568554,0.10089026,-0.15593316,0.13732354,0.020330613},{-0.44642705,0.16582964,0.14828771,0.097935975,0.17324091,-0.0703072,-0.122259185,-0.045767646,0.039285176,0.12212018,-0.097417235,0.080764145,-0.122767136,-0.026569996,0.16076925,0.022717785,-0.051349733,-0.05975716,-0.025904067,-0.049240626,-0.32291833,-0.022126239,-0.019476071,0.095978655,-0.31930676,0.122999646},{-0.23250844,-0.26890498,-0.29916728,-0.1916681,0.05589585,-0.06659718,-0.042981584,0.050444674,-0.039250914,0.091892585,0.10630121,-0.026912116,-0.12946784,-0.053734746,-0.1137526,0.041631974,0.028724946,-0.015373589,-0.05061194,0.026128346,0.03627445,0.046257395,-0.13415654,-0.10586469,-0.11393693,-0.013799092},{-0.09235557,-0.009703146,-0.018746655,-0.16192709,0.083536126,-0.081610166,0.09626023,-0.06205237,0.026476843,0.21801843,-0.07885849,-0.2847975,-0.099734664,0.20185442,0.015271817,-0.14871489,0.023899794,-0.009496901,0.13419478,0.38701224,0.11673466,-0.03346988,-0.19179982,0.30411488,0.08754325,0.2239692},{-0.0091344835,0.05552036,0.07090835,-0.10930637,-0.043354426,0.10298692,-0.019236285,0.07725974,-0.08631945,0.050684806,0.26065284,-0.17656334,-0.039232705,-0.102212794,0.078673325,0.049568783,-0.0272187,0.0775917,-0.2458528,0.39109787,-0.23252988,0.20001222,-0.13021596,-0.04743986,-0.15538314,0.17412399},{0.09282797,-0.083907,0.103840515,-0.061656773,-0.26548424,0.067658484,0.011151119,-0.09647843,0.15648904,-0.107836396,0.102863215,0.063743845,-0.012589284,0.08143475,0.04960518,0.1429851,0.15397854,-0.029858248,0.084496446,-0.2541902,0.21725301,0.161111,0.072481334,-0.13795473,0.25291008,-0.28691375},{-0.20628951,-0.30955076,-0.07051923,-0.016973328,-0.0785484,0.076461606,0.104888275,-0.07836903,0.03364972,-0.03142537,-0.14602877,-0.06480564,0.022535674,0.005661242,-0.043088324,0.025456162,-0.014442986,-0.03249629,0.07758499,-0.20439963,0.22459187,0.10030623,0.06133352,0.19255245,0.009080158,-0.06984432},{-0.09981563,-0.18773893,-0.0124287885,0.1730871,-0.093659304,0.14205234,-0.09688225,0.015854124,0.10683478,-0.14354886,-0.01869022,0.21537353,0.019220624,0.04880567,-0.036091693,0.0035725788,-0.04362583,-0.004777533,-0.64439535,0.16179852,0.3501178,0.21383762,0.22597748,0.22257733,0.31009686,-0.22699521},{-0.124969654,-0.22756197,0.06665507,-0.17596042,-0.04103646,-0.0934741,-0.0071752425,-0.07020166,-0.039030243,-0.08456334,0.29000336,-0.04493773,-0.08714719,-0.017479833,0.0040265545,0.096461624,-0.025601085,-0.048409086,0.1625394,-0.20326574,0.12058625,-0.29856998,0.19727297,0.25924113,-0.0258668,0.30209696},{-0.21381633,-0.07147439,0.012639165,-0.107752316,0.073106565,-0.017780976,0.022491641,0.0053939484,0.06531961,0.105472155,-0.007189516,-0.14099309,-0.09518861,0.05573219,-0.2996891,0.038005274,-0.0069204057,-0.017242946,-0.09833345,-0.31006515,0.2371319,-0.003396774,-0.27433094,-0.13875934,0.49348605,-0.09692899},{-0.100201376,0.26950988,0.3517899,-0.14655024,0.061161846,-0.06581439,-0.046531383,-0.043025337,-0.0032699709,-0.07738229,-0.19422272,0.10512999,0.03674426,0.09653604,0.033164397,0.05737505,-0.01670767,-0.0314988,-0.10986266,-0.0535168,-0.09207291,-0.17927065,-0.10319461,0.0033693085,0.11236676,0.006345587},{-0.16980551,-0.17253345,0.05385586,-0.07995886,-0.027590815,-0.071211524,0.008288557,0.065883964,0.052251898,-0.0021899529,-0.11856628,-0.024326583,-0.03767751,-0.13415265,-0.08547781,-0.020672565,-0.016024848,-0.026279813,0.2474002,0.18931524,0.07186386,0.1876365,-0.41641134,0.14886504,-0.064596914,-0.016699951},{0.20147082,0.10078464,0.07917279,0.20997715,0.058068153,0.04239591,0.08432244,-0.008529484,0.12875809,-0.016188703,0.050483678,0.11369096,-0.04513857,0.030276649,0.035656407,0.09215795,0.0041450663,-0.06646885,-0.20168866,0.010864875,-0.10738031,-0.13738148,-0.09502341,0.41713142,-0.10189042,-0.016471641},{0.26916778,0.23997994,0.08025337,0.1822346,-0.07551709,0.025933629,0.063860215,0.13083436,-0.10695375,-0.12774134,0.03788279,0.15585804,-0.010636348,-0.027594665,0.124112725,0.06651698,0.06868097,0.016047304,0.03424348,-0.12424329,0.25375906,-0.11353039,-0.02490755,-0.04181477,-0.11569019,-0.031679142},{-0.22497578,-0.0075642657,0.1336393,0.21065187,0.021908827,-0.09299471,-0.12045778,0.14992781,-0.14213899,0.19149004,-0.04898567,0.11173576,-0.2615098,-0.028932564,0.15624353,0.004230599,0.047395512,-0.09180006,0.303432,-0.031547155,-0.2941445,0.124711245,-0.23834008,0.14595181,-0.57186204,0.269826},{-0.077384226,0.15030174,0.009170308,0.04738976,0.040851966,0.04370781,-0.006024832,-0.06396919,0.19975191,-0.14442317,-0.13755788,-0.027200988,0.12446857,0.1498243,0.14742287,-0.076473266,0.17168152,0.11866551,-0.15146114,0.15893362,-0.28444207,0.24692193,0.17055601,0.09725206,-0.015120691,-0.3067886},{0.038226657,0.13635291,0.35463518,0.14964463,-0.10867404,-0.0953267,0.14338112,0.11526899,0.18967383,0.14746056,-0.15275866,-0.062582746,-0.16517188,-0.05996406,-0.06588909,-0.019451886,-0.05606243,0.04705736,-0.17808913,-0.20154186,0.110795796,0.009994937,-0.015176293,-0.2533231,0.146201,-0.19073811},{0.012293009,0.27713922,0.0768268,0.018881235,-0.1426111,0.03721266,0.32378218,0.01948709,0.09899956,0.032498144,-0.18040982,0.06969069,-0.10736652,0.22148792,0.32608256,0.027960826,-0.031591386,0.08028692,-0.14962505,-0.07335881,-0.25093168,0.17388175,-0.1128017,0.117431216,0.1819335,0.06568153},{0.10008438,-0.08451254,-0.010597896,0.2797199,0.1336442,0.23813194,0.0245321,0.047920756,0.05338666,-0.1674306,0.028166058,-0.07497309,0.07234216,0.017464058,-0.018251272,-0.009636273,-0.05200307,-0.029165657,-0.17864497,-0.17919512,-0.14266695,-0.56730866,-0.098160364,-0.1990515,0.2438057,-0.112606175},{0.06812604,-0.02515405,-0.18659316,0.10869592,-0.20212227,-0.2250592,0.10786249,0.15611929,-0.090617,-0.012791011,0.008153183,0.17680566,-0.09004661,0.034210958,-0.017099876,0.078573175,-0.0068675233,0.08064088,-0.17209007,0.27138048,0.09018858,0.016446507,-0.15495643,0.06846123,0.030550977,-0.11944123},{-0.12633546,0.054579087,-0.13397326,-0.03260941,3.302095e-05,-0.11068177,0.057963166,0.07118037,-0.019329688,0.24712469,-0.09177536,-0.0026892133,0.018589383,-0.10273929,-0.11810977,-0.0020314758,0.012293319,0.025879728,-0.090969294,-0.22025228,0.21615402,0.009883175,-0.45666218,-0.09557796,-0.05467685,0.18860953},{0.1495274,0.10899261,0.19419786,0.012036206,-0.06809807,0.16671994,-0.0470633,0.033216994,-0.12721193,-0.033263367,0.08302035,-0.21989721,-0.035500333,0.044041805,0.07997756,0.056585256,-0.033789415,-0.06728488,-0.31184226,0.03559241,0.09537956,-0.059741262,0.14076693,0.22954665,0.5021446,0.21949418},{0.12889431,-0.053034727,0.028428644,0.038584765,0.018767789,0.22136974,-0.12419479,-0.015285323,-0.12057658,-0.2233672,-0.00061179744,-0.027615674,0.24716087,0.09665025,0.10766135,0.084639914,-0.033621322,0.0156024555,0.14697039,-0.0018407282,0.10555286,0.008976641,0.45838523,0.041445043,-0.021873578,0.17805979},{-0.15052517,0.3281653,-0.18650503,0.034128476,0.10387327,-0.18992512,-0.0426456,0.019940503,0.043421388,0.07546956,-0.078343734,0.14567637,0.0032938763,-0.12139933,-0.0041476307,0.1281563,0.031462606,-0.01666151,0.12821932,-0.22898464,-0.09112119,-0.117921285,0.20481241,-0.16005406,0.33515796,0.41166568},{0.18897134,-0.16928905,-0.028735084,0.20014858,0.14998484,0.04184089,0.09371848,0.12650962,0.027978063,-0.08148534,0.20953394,0.0122740315,-0.04091025,0.047036305,-0.10473055,-0.03026616,-0.009717128,-0.028822938,0.25928104,0.1805641,0.59176177,-0.31904042,0.26053137,-0.17222351,0.10528365,0.029496713},{-0.11627637,0.025424248,0.11318911,0.12879023,-0.065465234,0.028563488,0.07176948,0.17967622,0.024328051,0.0071063656,0.02993412,-0.021705503,0.042642087,-0.01966703,-0.09062673,-0.00078901014,0.029450491,-0.006661989,-0.090435445,-0.12999505,-0.4589837,-0.14854956,0.43038484,0.43775126,-0.00083659403,0.72278416},{0.019834407,0.2356359,-0.017289564,0.117674746,0.10581129,0.048932694,-0.1271566,-0.21420594,-0.30802736,0.17902422,-0.21462195,-0.088165574,-0.20337006,-0.008682634,0.08637318,0.13947703,-0.0060891337,-0.12848273,-0.2869275,0.046469525,-0.4063764,-0.06687257,-0.18782169,0.2525405,0.096178845,-0.27741882},{-0.10983412,0.33709958,0.14524952,0.08094498,0.043732565,-0.21953441,-0.01601014,0.17670454,-0.032694336,-0.09703099,0.18143477,0.111007415,-0.013453126,0.06320377,0.072717786,0.06341176,0.0013664237,0.04161456,0.32642332,0.18237084,-0.17812529,0.2938865,-0.07380397,-0.011707799,-0.27127004,-0.19805244},{-0.010122995,0.07908971,-0.3004004,0.029534468,0.011192333,-0.09391738,0.07888506,0.13464892,-0.03419926,0.07655056,0.029189615,0.1397466,0.17363192,0.09815378,-0.11838236,0.0025902041,0.016977243,0.060043026,0.024558725,-0.09057261,0.40996414,0.20400645,-0.18887056,0.1527195,0.38133287,0.22979933},{-0.08426564,-0.04063179,0.024863489,-0.05952981,-0.14500378,-0.32704243,0.017457452,-0.0016386972,-0.022547172,0.2380567,-0.07727865,-0.108259976,0.12676059,-0.02229688,-0.21519081,-0.10031027,-0.013747341,0.03222696,-0.22350779,0.0507038,-0.39477766,0.04193265,0.11199,0.2258189,-0.11292698,-0.11420233},{-0.3901137,0.138275,-0.331312,-0.1605156,-0.06022896,-0.060247328,-0.114428006,-0.0112663135,0.0641576,0.012000867,-0.099114485,-0.052891035,0.050263472,-0.10342167,-0.10072575,0.0064247525,0.041034315,-0.05089547,0.40711382,0.32160476,-0.15051398,0.05402446,0.21354753,-0.04714914,-0.11329435,-0.20777382},{-0.25628862,-0.029963369,0.42590958,0.10984301,0.008665181,-0.16170672,0.18265505,-0.038887706,-0.10470321,0.14017014,0.04381521,0.008283563,0.057756852,0.065706976,0.11093344,0.06519686,0.043385986,0.06406158,-0.2526406,-0.19756009,-0.11281987,-0.12636597,-0.32015806,-0.03592709,0.253765,-0.12415498},{0.08302533,-0.017596234,-0.14238209,-0.011915014,0.0589833,0.1641427,-0.002365916,0.10049549,-0.08958304,-0.068574846,-0.05196983,0.02642752,0.08101274,-0.1386353,-0.018878222,0.0023272967,-0.04626852,-0.05315787,-0.056503866,-0.37394643,0.42321706,0.19488022,-0.23038085,0.12679091,0.115470365,-0.68442076},{-0.08497272,0.13160971,0.07263208,0.13426998,-0.09870617,0.038074043,0.0041638976,0.030617444,0.04658532,-0.20722072,-0.2111588,0.1457184,-0.108031586,0.12734841,0.09496511,-0.023913037,0.04572605,0.02500418,-0.16291179,-0.116381615,0.25774762,0.30281964,-0.30710286,0.009163014,-0.0076476526,-0.03154495},{-0.32378098,0.38410893,-0.33872566,0.12996851,-0.14884919,-0.017031258,0.15563783,0.08009314,0.065032355,-0.025067898,-0.2104785,-0.031143488,-0.08247144,-0.022400284,0.028480086,-0.02497714,0.069698654,0.017171562,-0.38355872,0.002609635,0.0043673934,-0.1166763,-0.18340957,0.12414516,-0.0385138,0.07770834},{-0.07523037,-0.29209366,0.16769733,-0.018869638,0.0431519,0.01688117,-0.14683944,0.086200766,-0.16724017,0.07029743,-0.097029336,-0.046393894,-0.068442784,-0.10277684,0.1049841,0.08492935,0.08472553,0.030733492,-0.0663515,-0.21682788,0.18018691,-0.078646876,-0.1317616,-0.16365062,0.24463448,0.053072665},{-0.28647432,-0.11165825,-0.22492503,-0.07882879,0.08625368,-0.15141404,0.21612978,0.0641598,-0.12247432,0.1835234,0.052155428,0.15273555,-0.03237759,0.10735976,-0.08447875,-0.11722855,0.13684796,0.0814395,0.055598035,-0.3212082,0.008663629,0.121454366,-0.10872093,0.26088938,0.21967025,-0.22537379},{-0.09618992,-0.026711984,-0.08776118,0.038648233,-0.07850379,-0.05501266,0.12748496,0.17329329,0.22752962,0.0055847955,-0.2942342,0.10001236,-0.19977632,0.21301073,0.14285398,-0.04392155,0.0037901201,-0.05044587,-0.11899093,0.16967966,-0.08247988,0.37093383,0.19765715,-0.14681613,-0.32723057,-0.005253532},{0.23356815,-0.25294945,-0.16873533,-0.067431785,-0.12075086,-0.08676763,0.23248336,-0.1563221,-0.07580173,-0.09475209,-0.036891922,0.00820947,-0.01998287,-0.040255457,0.065618835,-0.017363036,0.07619539,0.0477507,0.022632232,0.012654968,0.17396192,0.2184181,-0.0107420385,-0.07357515,0.044650722,0.015434409},{0.1921346,-0.11812764,0.27012,-0.0764703,0.023800185,0.06357502,0.1159446,0.0733461,0.0008454125,-0.10599304,-0.029022502,-0.31362343,0.17085208,0.11078757,0.16863447,-0.041798696,0.045920976,-0.025487578,-0.021730652,-0.1387077,0.089900605,0.0022306626,0.05167637,0.44420803,-0.27802485,-0.18429148},{-0.06086081,0.085599095,0.0027187236,-0.034330245,-0.006476073,0.1870949,-0.10691606,0.004466961,0.0106815165,-0.049618427,-0.084825754,-0.040123437,0.061960865,0.03843516,0.017866166,0.023631236,0.01993495,-0.036098685,0.13692442,-0.17636518,-0.068967044,0.04561422,-0.2745812,-0.1023762,-0.017535234,-0.32506737},{0.1910992,0.24656634,-0.19421926,-0.0853217,-0.076949336,0.2751667,-0.004960174,0.08532268,0.2776943,-0.27014977,-0.2125987,0.1816512,0.18431772,0.091690764,-0.16663554,0.042899877,0.037623968,-0.0050153686,-0.14740914,0.27410287,0.39616925,0.014521433,-0.060542822,-0.18188994,0.13266595,-0.18860468},{0.023575436,0.40890896,-0.16623873,-0.06614761,-0.01924878,-0.03732519,-0.028623749,0.07923026,0.27407095,-0.09672395,-0.22626226,0.2574555,-0.064276,-0.028115958,0.24567418,-0.19778752,0.092591584,-0.07970031,-0.1828331,0.16568115,0.05848231,0.038502593,0.15222198,0.100100525,-0.0018525335,0.29442632},{-0.004573025,-0.12597893,0.07590254,-0.045816705,0.09925617,0.057454713,-0.1061616,0.076563425,0.19362926,0.04494847,-0.12009683,0.04111922,0.106903985,0.08091718,0.039588653,-0.06998031,-0.1427541,-0.18218605,-0.19989651,0.065358184,-0.15038928,-0.3114226,0.07561269,0.21646644,-0.07931891,0.1499065},{-0.011621408,-0.34473178,-0.32453954,-0.20252569,-0.057959706,0.083087094,-0.12028965,-0.15476133,-0.14934832,0.037349373,0.21791631,0.12559246,0.07264637,0.05586441,0.11453623,-0.054867532,0.027885286,0.004869057,-0.018103942,0.1032549,0.05364126,-0.14577447,-0.1796465,0.1877985,-0.052579235,0.039758895},{-0.0025701793,-0.064476766,0.12703544,0.11666516,0.12236766,-0.11341304,-0.31243354,-0.05810763,0.016919158,0.3058402,-0.030741237,0.12562266,-0.067270495,0.028665205,-0.08229151,0.049515165,0.06530178,-0.087712534,0.056952234,-0.21652581,-0.03660391,0.045751132,0.30396187,-0.16566116,-0.43550292,-0.06785643},{0.13297293,0.21003781,0.051951382,0.081758276,0.05637161,0.14207812,-0.010870725,-0.04947829,-0.080972426,-0.15654568,0.017497858,0.1637064,-0.091800675,0.09169196,-0.06984266,-0.004721283,-0.0566858,0.07875621,-0.14242391,0.26784587,-0.58340883,-0.16701198,-0.124571815,0.38004035,0.42122608,-0.17753072},{-0.009181877,0.20306478,0.034858298,0.070111014,0.12743533,0.09502446,-0.17045124,0.17312892,-0.054944627,-0.08539098,0.0937166,0.18082926,0.06336065,-0.016724924,0.14945953,-0.13843353,0.0662865,-0.012569135,0.04253507,-0.1474471,-0.16304727,-0.030331552,0.15510063,-0.17717272,-0.02058822,-0.084959425},{0.17348802,-0.050187938,0.3493906,-0.16915557,0.09028184,0.1515147,-0.06814773,-0.10704959,-0.023045437,-0.11946332,0.16650695,-0.073348306,0.029462332,0.008744569,-0.21790707,0.07456562,0.067906626,-0.031127274,0.010049926,0.10832908,0.13461174,-0.1676095,0.37298664,0.45651188,-0.17513427,-0.12029916},{0.15613475,-0.0012883422,0.19348675,-0.037487436,-0.2194773,0.15337075,0.062485225,0.02594702,0.02251107,-0.06780587,-0.012804431,0.053568598,0.14935659,-0.0836252,-0.05881671,0.041853145,0.05531454,0.023733558,-0.3147067,0.18946517,-0.2243432,0.11628689,-0.0901033,-0.31874883,0.20685162,-0.095602036},{-0.011652143,0.22135454,0.24352515,0.024017446,-0.14169322,0.171903,0.057676405,0.043259006,0.019930718,0.06448042,0.04561796,-0.005135888,0.002036856,0.11167036,0.12543108,-0.096745804,0.0045535336,0.011984157,-0.053358264,0.17088199,0.18417738,-0.25826794,-0.18417057,0.32336473,-0.09845402,-0.020123333},{-0.22343801,0.022891905,-0.108961254,0.00469188,0.16762382,0.20474781,-0.014203166,0.089052975,-0.064297006,-0.04097828,-0.12348038,0.03777904,-0.024782594,0.0037626375,-0.059325576,0.0006929228,-0.0013589631,-0.10524338,-0.1623353,-0.2020253,-0.16190343,0.19391471,-0.034873564,-0.16457748,0.12792857,-0.24276032},{0.10523436,0.11631177,-0.003265536,0.020918153,-0.3803866,-0.053304985,0.21940258,-0.18449362,0.025198244,0.011595964,-0.18414271,0.084919706,-0.06918445,0.01665988,-0.21498396,-0.018120604,0.03117717,0.12445635,-0.30356362,0.08196717,-0.21972416,0.29214248,-0.13095532,-0.07961699,-0.1460316,-0.28360265},{0.14422664,-0.33976674,0.054869916,0.166975,-0.07802739,0.05440816,0.069772825,0.09159144,0.10116481,0.039434668,0.14104286,0.24272163,-0.022795616,-0.19770628,0.11526881,0.03768223,-0.07600011,0.06065252,0.060799234,-0.20016435,-0.129949,0.1964442,0.02701032,0.31520835,-0.103720345,-0.16192585},{0.02414178,0.122048154,0.17784648,0.14484866,0.032653574,-0.003958774,0.16871847,-0.07477508,-9.375168e-06,0.15765388,0.035436124,0.012194738,-0.11302474,-0.037520837,0.05104721,0.06853829,-0.03709011,-0.011352088,-0.2755156,0.06468506,0.0038533516,-0.1421896,-0.17051901,-0.47112632,0.37996778,0.41430208},{0.15825765,0.10308233,0.031413645,0.08770006,0.059623912,0.022657994,-0.14729474,-0.10530531,-0.13713492,-0.16398402,0.037620537,-0.02769944,0.22225818,-0.08013271,0.039564636,-0.11796924,0.15408303,-0.05242244,0.2955702,-0.097210065,0.5303783,0.26518103,0.3960748,0.21667217,-0.0013090406,-0.1949263},{0.024395136,0.09050896,-0.05977031,0.09942178,-0.24759369,-0.07186359,0.12643105,0.1395437,-0.038405634,0.25065678,-0.11171081,-0.07312108,-0.17078456,-0.014456962,-0.03608858,-0.06245745,-0.09130143,0.17222205,0.15905273,-0.13218643,-0.3753283,0.30019525,-0.03621603,-0.011867583,0.08447826,0.119466305},{-0.07406676,0.17548381,-0.08532245,-0.03235986,-0.058517817,-0.014369424,-0.017600017,0.15036276,-0.0096153915,0.04691588,0.05857127,0.26953194,0.013789816,-0.012736493,-0.03694127,-0.01553554,-0.0047948393,0.049263515,-0.3385086,0.2334909,0.07246289,0.19836959,-0.5356828,0.092314936,0.5652062,0.19500272},{-0.07284661,0.044568643,-0.18428493,0.18524796,0.058695253,0.124263845,0.007941967,0.28100672,-0.038911805,-0.09745987,-0.022889616,0.18558426,-0.022510557,0.07254042,-0.054643273,0.02498449,-0.0070737414,0.023483211,-0.10591099,-0.3317965,-0.5372538,-0.23336363,0.2590373,0.13999617,0.03937645,0.21192133},{-0.109854564,-0.1582182,0.11040726,-0.18340585,-0.061822712,0.008043109,0.105890244,-0.14314397,-0.19317292,0.049815066,0.13629024,-0.07220115,0.12242848,0.09251278,0.079444565,0.1455072,-0.0017297476,0.09357458,0.1353384,-0.16665573,-0.34567943,0.22865675,-0.15656193,0.008200823,-0.52152747,0.28002384},{0.024479011,0.13910134,0.066295944,-0.012673667,0.09934127,0.045834597,0.083107784,0.0958389,0.012257535,0.018877374,0.09261696,0.18542098,-0.06359183,0.100021385,-0.029004784,0.054050203,0.1156608,-0.0875502,0.3679849,0.2911448,-0.026967289,0.16779552,0.062941976,-0.13549344,-0.30637926,0.052829955},{-0.023723213,0.111246906,-0.18099956,0.029965585,-0.080126986,0.0044066943,0.054274343,0.17725037,0.08336038,0.050885167,0.01443172,-0.009463007,-0.02469568,-0.11681552,0.24409403,0.027884025,0.0022710643,-0.0049697766,-0.19998431,-0.055255685,0.4927229,-0.25086555,-0.32925507,-0.34948206,0.110260464,0.05342149},{-0.038104784,0.052649543,0.10110348,-0.18239507,0.10207042,-0.0855884,-0.020196155,-0.05741214,0.095963694,0.0012790575,-0.13811673,-0.07150823,0.16040424,0.10061752,0.086858325,-0.087369494,-0.0321,-0.1768105,-0.35303777,-0.09734162,0.011848755,0.12098779,0.029946147,-0.5135391,-0.16188946,-0.09271114},{0.19649509,-0.2089947,0.09837377,-0.072549604,-0.24619171,0.052780744,0.18201937,0.18339406,-0.10443386,0.12452148,0.08954627,0.045865647,-0.079760335,0.037429344,0.16851613,-0.003197739,0.0043672123,0.105547324,-0.10393345,-0.26048356,0.08226618,0.10156431,-0.11415871,0.07754006,0.104626246,0.24421637},{-0.0542598,-0.14647955,0.11890791,-0.12555946,0.11115222,-0.1322468,-0.036051497,-0.07141056,-0.10178175,0.23135322,0.17017327,-0.015155142,0.1443921,0.083993495,-0.007127034,0.08768511,0.04570019,-0.12080823,-0.0891749,-0.11829473,0.6046776,-0.058612823,-0.051335827,0.14461641,0.20775796,0.12585305},{-0.2807579,0.35791528,-0.18333633,-0.07497379,0.013826354,-0.13580632,-0.14201066,-0.04608924,0.21125308,-0.016225304,-0.05444887,-0.051769342,-0.22542655,0.15537621,0.055750493,-0.014208367,-0.0042023733,-0.021767262,-0.065575905,-0.27482036,-0.06683517,0.07674932,0.07156371,-0.13053085,0.09320171,0.23226266},{-0.059896376,0.010534547,0.060406238,0.11429476,-0.0772627,-0.0722022,-0.1110853,0.19071753,0.04024334,0.0827709,0.0027837032,0.20575255,0.09169733,-0.13342513,-0.019475974,0.020911403,0.03381811,-0.010136016,0.74102813,-0.07391241,-0.03275082,-0.26469237,0.07503186,0.23310733,0.3377986,-0.2668603},{0.07244095,-0.036819007,-0.23433688,0.11327884,0.027689766,0.29293746,0.041590404,0.1284007,-0.021054016,-0.028777275,0.12376034,0.036946103,-0.07379497,0.08192581,-0.13377553,-0.021863794,0.0099309,0.021564553,0.03539196,-0.4026398,-0.04115983,0.08131349,-0.5807206,0.4773085,-0.24529622,-0.04621274},{0.35567424,-0.2310379,0.31725535,0.03960656,0.0990591,-0.089359514,0.105871655,-0.11130536,-0.0758754,-0.267351,0.10610238,-0.15867181,0.20503387,-0.120507374,-0.034190353,-0.032376457,0.009079533,0.0058357147,-0.04835673,0.0072991815,-0.037181,0.16504656,-0.06110802,0.038084544,0.18903415,-0.20947713},{0.110269785,-0.035341974,0.05666307,-0.04276932,0.04982541,-0.07703085,-0.05569997,-0.1427201,0.016147126,0.1774397,0.05590466,0.10666873,0.15905221,-0.08491929,0.1440613,-0.056628898,-0.09048997,-0.039540324,0.03228227,0.14454171,-0.3281507,-0.08231341,-0.27796814,-0.07537354,-0.50101256,0.05044961},{0.19962284,0.14502817,-0.12520623,-0.03725215,-0.13775694,0.18389893,0.091830365,-0.08320946,0.10265537,0.061022833,0.08777501,0.17362235,0.12380713,0.12406659,0.07713688,0.07839283,0.029359724,0.017801596,-0.2036443,-0.12413386,-0.104744434,-0.37457684,0.35063487,0.21925963,-0.23592111,-0.12207338},{-0.13723397,0.019021342,-0.1347981,0.013682138,-0.15401067,0.05990027,0.00077766937,0.052248627,-0.048384376,-0.06325247,-0.008899822,0.044374265,-0.08051548,-0.16556351,-0.2384877,0.011874374,0.057838764,0.07389203,0.2194967,0.031276856,0.23310073,-0.41077211,0.27524763,-0.12709518,-0.7242359,-0.19583209},{0.13043666,-0.0045119403,0.17905547,-0.020807458,-0.25721565,0.09313286,0.21507406,-0.06905732,-0.18309933,-0.09432992,-0.14053573,-0.1029247,0.13259907,-0.022903142,-0.036573064,0.0374198,0.082119174,-0.031953342,-0.065177396,0.18834749,0.13748215,-0.14539304,0.21406783,-0.0025131593,0.4067363,-0.11278972},{-0.14177102,0.059012707,0.0248468,-0.12989609,-0.010177601,-0.30323976,0.05330068,-0.07240526,-0.1284141,0.2296339,0.116654485,-0.014398686,-0.21179853,0.056410506,0.02372036,-0.03792676,-0.16865654,-0.08725976,-0.22942218,0.03706805,-0.03209912,0.0059958585,0.015462531,0.2581141,-0.5109799,0.35432965},{0.014212614,-0.06559015,0.26563534,-0.07393193,0.13782378,0.09660832,-0.05970335,-0.23338649,0.049811665,0.032029267,0.13146107,-0.08267423,-0.20018761,-0.10815537,-0.17165264,0.06879523,-0.009019002,0.008964347,0.26851264,-0.16586758,-0.20629278,0.14905627,0.20997243,0.30659452,-0.009224264,0.14300747},{0.25429004,-0.13770157,0.03021614,-0.21560974,-0.037405007,0.022312282,-0.028160876,-0.14286712,-0.11831207,0.17378283,0.015037036,-0.04736445,-0.076565936,0.05276646,-0.0076215314,0.1410143,-0.07151891,-0.0137419915,0.43023133,-0.024452854,0.29318392,0.31586573,-0.19708742,-0.31374136,-0.18938133,-0.29915676},{-0.1972944,-0.051740374,-0.39261302,0.025508204,0.24011208,-0.2666903,-0.11768067,0.1482313,-0.0019684916,0.16543722,0.10191495,0.11095989,-0.11576256,0.02213617,0.1309976,-0.06318105,-0.0008235353,-0.015839038,0.30451623,-0.13029477,-0.20185232,-0.04669744,0.22233184,0.06687871,-0.33723667,-0.001512432},{0.087737806,-0.10230344,-0.12832889,0.07169684,0.17454486,-0.028503595,0.02930953,0.14624591,-0.06586812,-0.09391753,0.3217047,0.17740506,0.003704954,0.013586068,-0.07301978,0.06257912,-0.022757145,0.0346688,0.060616333,0.013946865,0.17578782,0.079637185,0.06090154,0.0056950008,0.22672181,-0.13381265},{-0.15925938,0.0985344,0.18893224,-0.12593913,0.14139222,-0.014397032,-0.014421464,-0.13914561,0.2901703,-0.1224254,-0.03672196,-0.21615323,-0.11686314,-0.0011069289,-0.16675074,-0.098897666,-0.020412907,-0.12217285,0.08459785,0.22688279,-0.124012314,-0.0012901865,-0.2143084,0.28927118,-0.03017647,0.06205716},{0.23755038,-0.10310034,0.04034471,-0.0445578,0.24627347,-0.050154835,-0.13102296,-0.20535083,-0.14615889,-0.09756813,0.115412705,0.037856467,-0.12117987,-0.10913603,-0.15341553,0.010181138,0.018770905,-0.07094205,-0.34114674,0.0859805,0.02502037,-0.20468675,0.21466812,-0.06725228,0.024845848,0.1846278},{-0.17538553,-0.061313685,0.012779274,0.031626765,0.20835628,0.019269966,-0.084494896,-0.042034004,-0.050196376,-0.05056689,0.08842257,0.048504137,0.014488764,-0.0035050465,-0.010844705,0.042734385,-0.055294212,0.023189416,0.33514452,0.19013144,-0.37082052,0.02151126,-0.12448204,-0.30167684,-0.39271203,-0.1885661},{0.07469002,-0.26036042,-0.093330994,-0.13266885,0.046808627,0.05112628,-0.005508011,0.08195203,-0.24915649,-0.015197928,0.1448886,-0.1083279,0.10862686,-0.10796543,-0.036884706,0.005193646,-0.03032484,0.007162478,-0.06682203,-0.123468846,-0.12366005,0.04939457,0.26802585,0.044966504,0.14877473,-0.10662614},{-0.22870488,-0.0046583037,-0.03242088,0.081833534,-0.010106012,-0.045014676,-0.16266242,-0.099057294,-0.07322003,0.24533959,0.0125678945,-0.0138596,0.10442879,0.19800441,-0.10736138,0.115961574,0.0802217,-0.051473297,-0.0866833,0.13143007,-0.18112576,-0.13851307,0.34947672,-0.29695445,0.35727334,0.16469315},{-0.047293767,-0.2155381,0.02326197,-0.048381407,-0.068967395,-0.01897323,-0.019288396,0.09361713,-0.15240785,-0.08029511,-0.075331375,0.30621463,-0.08266828,-0.056653656,0.03790357,0.033810902,0.024480037,0.031167345,-0.3289518,-0.18564871,0.24837394,0.06179789,-0.14190862,-0.10771438,0.11217183,0.05971038},{-0.0069660763,-0.09304823,0.023819752,-0.054831363,-0.036504373,0.2200636,0.107408725,-0.22811131,0.06431358,-0.25205314,-0.029689066,-0.2137159,-0.02484687,-0.19288892,0.050178774,-0.044926006,0.1521758,-0.06879438,-0.21315883,0.11474477,0.3705182,0.11140245,-0.43207785,0.16744621,-0.0518379,0.0145232575},{0.0479615,-0.025695931,0.0046327463,-0.03699181,0.18352292,-0.017157322,-0.078977875,0.016961157,0.020496743,0.01885359,-0.077682,-0.02808803,-0.1272654,-0.0059599387,-0.10338366,0.07920731,0.017446466,0.058019802,-0.09526957,0.112311855,0.2813099,-0.18028998,0.09638684,-0.07480583,0.08060194,0.043987494},{-0.16735937,-0.062745355,-0.16582924,0.03178122,-0.08919979,0.053243015,0.092410244,0.23577431,-0.21912213,0.046719097,0.05436965,0.16321614,-0.08094046,-0.085262425,0.17836775,0.049716238,0.023677409,0.0363432,0.12572211,0.12183224,-0.2543637,-0.018927889,-0.056798495,0.19686885,-0.076206945,0.0019149409},{0.13094139,0.050432287,0.001787175,0.04933275,0.16115217,0.11909455,-0.100969896,-0.015508346,0.16275528,-0.10093008,0.0718843,0.027787458,0.036904998,0.012894737,0.112133056,-0.0953723,0.20905083,-0.0020401168,0.03866709,0.16973457,-0.14300828,-0.2213134,0.05172586,0.047915023,0.22757286,0.058850173},{0.20114905,0.08391258,-0.05827255,-0.01322509,0.013565708,0.017307933,0.07543779,-0.0013284438,-0.3475248,0.056450747,0.11851484,0.12088989,0.028120665,0.06422118,-0.13820307,-0.01662368,-0.053027194,-0.044707246,0.11264093,0.1274801,-0.13492183,-0.036026113,0.7874721,-0.25366116,-0.35215953,-0.21502224},{0.03575689,-0.0966506,0.18811244,-0.03002282,-0.2266712,0.033520985,-0.002555698,0.016638368,0.0147130415,-0.06707134,-0.004469211,0.08869877,0.034240752,0.02949235,0.024722842,0.051205266,0.0533032,0.036729373,0.18262032,-0.18447477,-0.15731514,0.13734041,-0.15093964,0.21162844,0.43287843,0.14936274},{0.01497132,0.01225155,-0.12957236,0.0071152984,0.10987428,-0.19099925,-0.102451265,-0.037110105,-0.02266357,0.041387547,0.10048095,0.013670459,-0.14794831,0.06358446,0.03376388,-0.01661703,-0.011122807,-0.044916257,0.30190343,0.32561535,0.26413727,-0.33038035,-0.29514617,-0.15464139,0.097712,-0.03869902},{-0.11828305,-0.078844786,0.032609444,0.15138513,-0.06880155,0.20953897,0.24367557,0.0072849574,0.12144236,-0.0787081,-0.12300503,0.36516052,0.020318786,-0.16249059,0.026072359,-0.015385705,-0.0027069713,0.021843564,0.33137572,0.26156244,-0.04792943,-0.082881056,-0.10080574,-0.2530292,-0.15425104,0.15289985},{0.08576608,-0.24480306,0.3003192,0.11748229,-0.094408706,0.095636144,0.20839985,-0.092032686,-0.12343126,0.14613324,0.3089792,0.105214365,0.049754556,-0.13252902,0.23200835,0.057668366,-0.011222423,0.01616674,0.17986201,-0.24213703,0.11844994,0.014736263,0.14757174,-0.3274649,0.22983995,-0.11771897},{0.21297836,0.15725559,0.042339988,-0.036863316,-0.041752115,0.05674524,0.20635013,0.020738019,0.18829218,-0.053590644,-0.22003011,-0.17657018,-0.09974419,0.10275391,0.0061948826,0.03183105,-0.1115673,0.030109579,-0.04220801,0.08542557,-0.17897873,-0.030842507,0.15970284,-0.2601934,-0.07809,0.019415714},{0.10589803,0.052615333,0.12627922,-0.006168155,-0.12002216,0.19522199,0.08252245,-0.12567422,-0.053331375,-0.016376168,0.08608238,-0.12305955,-0.013425837,0.12782994,-0.049238805,0.07376648,0.047276206,-0.07928678,-0.1474636,0.05493355,0.27084726,-0.43449536,0.1669844,-0.08019207,-0.24692237,-0.19058669},{0.039064072,-0.237099,-0.090117574,-0.05708471,0.016452044,-0.0021001736,0.030476063,0.050779276,-0.016826404,-0.026254224,-0.04073316,0.030497164,0.14869535,-0.11025397,-0.02766884,0.051993284,-0.025123077,-0.24325387,-0.10110595,0.28060198,-0.05478593,0.4154308,-0.040617898,-0.3347921,0.3840475,0.41185603},{0.25440064,-0.15312448,-0.14023922,-0.041036293,-0.11883678,-0.060959347,-0.13275939,0.09583095,-0.019647587,-0.06465154,-0.13756263,-0.0745129,-0.02628461,0.13186756,0.11308121,0.023502002,0.02634296,-0.07414264,-0.072107896,-0.25063008,0.27168402,0.10784852,-0.14601704,0.092074506,0.10591562,-0.31041342},{0.0036407795,-0.24129532,-0.20220879,0.067932524,-0.099123016,0.04112118,-0.079092145,0.0039877654,0.03090716,0.03338716,-0.10330109,0.03944173,-0.27685326,0.20136948,-0.11223207,-0.055569984,0.017397828,-0.020062385,-0.27708426,0.033678874,-0.15092202,-0.22783403,-0.24483393,-0.014154412,0.19613068,-0.043001685},{0.14002156,-0.3080745,-0.3062513,0.214488,0.13802168,0.122500025,-0.11723007,-0.17659363,0.025346445,-0.07086224,0.185127,-0.025121544,0.08317356,0.00022160485,-0.054983944,0.027088985,0.0417393,-0.07571455,0.33278862,0.47559893,-0.020202387,-0.110575296,-0.03887237,0.17187995,-0.105359584,-0.08080446},{0.099488914,-0.14126931,0.12583108,0.0488806,-0.12848653,-0.039741885,0.061022196,0.15448387,0.13158813,0.061521377,-0.030944217,-0.056741413,0.15559597,-0.055548344,0.11439656,0.11288236,-0.08247315,0.10133262,-0.20332265,0.3370326,0.16497345,0.095773116,-0.49254504,-0.06372624,0.14228147,0.18720375},{-0.009437072,-0.27572376,0.051853757,-0.04546318,-0.019102737,0.055911142,-0.008478313,-0.072687365,0.0005627089,-0.00049002527,0.07070563,0.03927995,-0.040487804,0.024796095,-0.004851384,0.00436793,0.09882908,0.14773583,0.19922855,-0.12208572,0.16128084,0.41713175,-0.3445763,-0.0701514,0.028916879,-0.1546323},{-0.05822911,-0.27106243,-0.24181552,0.08359566,0.09312578,-0.082091846,0.11316163,0.14655969,0.19366646,-0.14229707,-0.028318584,0.09715142,0.079081155,-0.15161955,0.04141186,0.02478896,0.037831105,0.10170687,0.18955852,0.45490852,-0.032876786,-0.10397219,0.36770537,0.13452728,-0.008786239,-0.016589627},{0.15972218,-0.114890575,0.22078869,-0.034441452,-0.2291535,0.3041155,0.00456482,0.033916973,0.13004,-0.17781352,-0.09061829,-0.12135996,-0.10402126,-0.0148154395,-0.025102463,0.0861221,0.13116795,-0.18654597,0.13526873,-0.035649717,0.05025339,0.13669333,-0.15277436,-0.01732636,-0.11265924,-0.33415145},{-0.054952778,-0.044370487,-0.06320873,-0.07416328,-0.07185524,-0.020217368,-0.06337267,0.1632314,-0.18910044,-0.060302187,0.07932085,0.028617896,-0.012333628,-0.06015415,-0.099793136,0.0692142,0.062020168,-0.081475206,-0.18619415,-0.1335831,-0.22209613,-0.21476047,-0.027875533,-0.3749399,0.34121555,0.044703532},{0.009906812,-0.023574052,-0.3935101,-0.085427634,-0.01871144,0.02915655,-0.15381822,-0.1736228,0.07008595,-0.14526762,-0.07749815,-0.15107757,-0.030230805,0.11266214,-0.050276615,-0.044546604,0.068021804,-0.033850376,0.042092606,-0.021603812,0.00019374941,-0.03063888,0.27871442,0.17008612,-0.051864445,0.02818272},{0.007639789,0.16614461,0.27166462,-0.1437167,-0.028482497,0.04491908,-0.07361522,-0.036187723,0.057483874,0.12908673,-0.25066704,-0.08544492,-0.121360324,0.07528793,0.077907905,-0.02538314,-0.009987693,0.030806696,0.2583168,-0.070080854,0.055657107,-0.15179105,0.16292448,-0.18110947,-0.01724563,-0.24910061},{0.23654886,-0.16319133,-0.0075158863,0.22887583,-0.08716336,-0.09831088,-0.028155291,0.16376643,0.07140946,0.028395656,-0.048839685,0.12058129,-0.03582721,-0.036444087,0.24357495,-0.05062127,-0.07447592,-0.015976993,0.009857997,-0.4150959,-0.17435165,-0.265095,-0.02545692,0.08873986,0.38818347,-0.10109574},{0.44647795,-0.33115727,0.29635072,-0.2726292,0.116133094,0.09070036,-0.056482606,-0.028296325,-0.045673404,-0.0714112,0.20144542,-0.044346098,0.015526424,-0.062251247,0.040960386,0.063830465,-0.02491937,-8.018437e-06,0.19174312,0.13645183,-0.22918001,0.030984115,0.085905865,0.087506816,0.037436534,-0.097324684},{-0.3676179,-0.081198044,0.047573682,0.2041877,0.26583004,-0.2236311,0.03648211,0.05053253,-0.12488527,0.08988593,0.097370945,0.18447833,-0.071037844,-0.055785697,0.067747936,0.012343275,-0.00015774001,-0.024352763,0.13734409,-0.12284038,0.22833268,-0.1901094,-0.022544555,0.032840412,0.02832481,0.061373886},{-0.10474462,0.14248028,0.104388155,-0.15126066,-0.1539132,0.16657886,0.17676638,0.03137716,0.028833145,0.15497485,0.07211209,-0.026589679,-0.0023948466,-0.14207457,0.07431273,-0.10788717,0.010456464,0.012263864,-0.0801381,-0.08955073,-0.32983404,-0.1480121,-0.1901309,0.10940552,0.22853218,0.3389152},{0.14734489,0.16542323,0.08183771,0.13092686,0.052368708,-0.030398497,0.109184906,0.08184426,-0.10486404,-0.14147033,-0.01449346,-0.054048136,0.0065664677,-0.11141936,0.13359642,0.11286546,0.048077192,0.016290706,-0.030554216,-0.10207539,0.12430399,0.43703875,0.11318707,-0.07866008,-0.33086398,-0.012801103},{0.1588545,-0.032801628,-0.105661675,0.078283966,-0.002608973,0.031385593,0.062203176,-0.01730753,0.08014758,-0.014075491,-0.09169382,-0.095961764,0.043438565,-0.15376021,-0.023197785,-0.15676205,-0.12337529,0.021032795,-0.2425101,0.20980343,0.45566934,0.23819195,0.011326929,-0.21848029,0.21050207,0.09428013},{0.4520186,0.08357392,0.024737744,-0.15513769,-0.06636565,-0.15447122,-0.19347152,0.056686874,-0.08720568,0.10275736,0.010474724,0.05322729,0.17317604,0.013725591,0.019532142,0.06815548,-0.15528136,-0.055906713,0.01986777,0.11514896,-0.009423087,-0.16015445,0.40425754,0.44159943,0.032771632,0.062165968},{-0.4841526,-0.09127963,0.017353581,0.030975046,0.1489425,-0.22814348,-0.060723566,-0.056221593,-0.18716139,0.16124183,0.069974795,-0.145115,-0.15531555,0.0024825474,-0.0076848366,-0.0135509055,-0.057449773,-0.048169788,0.12480567,0.019868417,0.0010417005,0.056710888,-0.078760535,0.14380328,0.00060940254,-0.22618058},{0.14797544,-0.19012484,-0.029346887,-0.09570102,-0.114786044,-0.07482722,0.2180882,0.06471022,0.011889905,0.048522506,-0.047302052,0.00272769,0.29491588,-0.012341085,0.006666321,0.056999765,0.0039793435,0.05613978,-0.30552313,-0.18279162,0.039665814,0.0045399987,-0.24392869,-0.41604236,-0.11297549,-0.3532728},{-0.07915389,0.00012579314,0.087314576,0.011687135,-0.02133556,-0.06920384,0.090417795,0.05244263,-0.08370083,0.20584975,-0.111590154,0.057939567,-0.16969597,-0.15545873,-0.08320929,0.011025473,-0.025842335,0.020618534,0.13612753,0.092029996,-0.0449897,-0.54725516,0.25590807,0.419668,-0.04075761,-0.48066345},{-0.15276346,-0.45929918,0.2591081,-0.07785209,0.11221049,-0.117672645,-0.36046222,-0.14489901,-0.06601233,-0.021042261,0.10132632,-0.055641208,-0.0522366,-0.11860828,-0.054422833,0.036015943,-0.004452669,-0.04192342,0.19391288,0.09142046,0.16927889,-0.05103937,-0.10288973,0.11641884,-0.24496494,-0.04985348},{-0.15109487,0.06996165,0.1725685,-0.067070685,0.10985359,-0.04801101,-0.0943114,-0.076928884,0.3313145,0.21324721,-0.08740718,-0.10924038,-0.109056726,0.1570793,0.118669875,-0.028425617,0.0019211737,-0.07033413,0.0140040675,-0.065332785,-0.27705723,-0.06916001,-0.023152437,-0.0028885205,-0.037994873,-0.39945358},{0.057375167,-0.1855366,0.06588507,-0.08929621,-0.122069746,0.1412556,-0.21997958,0.03829448,-0.14220512,-0.013492786,0.12347816,-0.05253112,0.017539917,-0.049006954,0.11817922,0.08938188,0.0112279905,-0.027452212,0.027269324,0.0091174375,0.03761676,-0.2123232,0.13996369,0.23424026,0.07823353,-0.041611426},{0.27999297,-0.024193859,0.30123964,-0.18749219,-0.21365014,0.0094951745,0.2426133,-0.12301543,-0.069631204,-0.24765137,-0.106414616,-0.18501712,0.17539445,0.15486442,-0.13172129,-0.11177348,0.057322342,0.15316072,-0.102712065,0.053127762,-0.026135003,-0.18941133,0.23009562,-0.04409364,0.14338554,0.16911915},{-0.06591192,-0.07427901,0.08361834,-0.12243714,-0.027647274,0.25942478,-0.0103968335,0.13122419,0.017180044,0.060077094,0.071187936,-0.09669988,-0.012790882,-0.058566354,-0.15713489,0.079584606,0.082772985,-0.042999186,0.31452683,-0.4913971,-0.57562286,0.1237662,0.20092769,0.23434138,0.051854007,0.22656034},{-0.23925586,-0.26081315,0.12501536,0.08322769,-0.046072014,-0.021478109,0.016304437,0.18712631,-0.087589666,0.0982094,0.07837213,0.27454546,-0.17361261,-0.19064818,0.06458378,0.049852505,0.00081452075,-0.064686604,-0.12905748,0.07431405,0.09138803,0.02278378,-0.04819406,-0.09023199,0.065511726,0.030278182},{0.25605547,-0.09148548,-0.14488971,0.018917339,-0.0019061739,0.21731885,0.060924754,-0.029405845,-0.051916227,0.0044224686,0.023318358,0.024055973,0.08137645,0.005674255,0.12831599,-0.030785825,0.011194495,0.102434024,-0.21175319,0.00051383633,0.19031824,-0.078867204,-0.36469552,-0.21445261,-0.08075582,0.193646},{-0.08221564,-0.08626622,-0.16657077,-0.003639341,-0.013276291,0.060743127,-0.16845189,-0.09942794,0.14808527,0.008841073,-0.059890054,0.08533581,-0.035551604,-0.094431825,-0.078926556,-0.11517747,-0.03495059,0.06945908,0.6356994,0.106785856,-0.014495785,0.044721436,0.0612621,-0.58797437,0.11047433,0.25454235},{0.10730288,-0.13335146,-0.20187224,-0.08442558,-0.04582345,-0.009812682,-0.014554939,0.012885316,-0.27737904,0.010443604,-0.013220707,-0.040207952,0.019017223,-0.0877196,-0.037520334,0.011327066,0.078061104,0.026506772,-0.1001286,0.12570956,0.01548357,0.04947043,-0.02312216,0.20556623,-0.24602018,0.3533875},{-0.0006783005,0.0013991431,0.07097653,0.119080976,-0.20746006,-0.09605865,-0.15442294,-0.058914732,-0.16235484,0.022434168,0.36125976,0.11031649,0.023483286,-0.15467481,0.05478312,0.029807437,0.050970476,0.12875426,0.09006831,-0.11766272,0.009131133,-0.06310709,-0.29396534,-0.034509256,0.2769563,0.1879787},{0.046131514,0.12883942,0.23517677,-0.23302144,-0.002947655,0.087975755,-0.06984023,0.053017493,-0.2929585,-0.09620206,-0.064520724,0.12193953,0.03899637,0.12081501,-0.16240098,0.0014912217,-0.031657033,0.06129895,0.03210446,0.023858367,-0.24461415,-0.36883628,0.11815031,-0.12227451,0.060439605,0.37505573},{-0.2689423,-0.15585324,0.0642028,-0.12229823,-0.19081879,0.06523712,0.37553096,0.100039214,-0.13419656,-0.01659463,0.221594,0.06165477,0.010716829,-0.0057080444,0.031620905,0.0633965,-0.053329915,0.10973888,-0.04345661,-0.22434324,0.055457335,0.19619614,0.09600746,-0.0052680336,-0.14386964,0.17698096},{0.2685896,-0.0727148,0.033823784,0.055052415,-0.08130128,0.12685323,-0.018389395,-0.012348091,-0.12229461,0.046920784,0.15648533,0.13832815,0.19878593,0.11901507,0.1691507,0.04277441,-0.02967207,0.158846,0.1417311,0.027513333,-0.0005736213,0.25884125,0.22461003,0.3548388,-0.061588127,0.12673014},{-0.011439051,0.1740206,0.073958084,-0.019471463,-0.3109885,0.06581387,0.12753713,-0.091155805,0.029783113,-0.05152452,0.010330953,-0.13124523,0.008680332,-0.17080124,-0.04644985,0.14520706,0.1017413,-0.014330685,-0.4682978,-0.021004278,-0.30048668,0.08809059,0.12259423,0.28096226,-0.39690736,0.24923941},{0.12115612,-0.018076306,0.10187629,0.09471442,-0.08427678,-0.0090310015,-0.18602175,-0.011820041,0.07868394,0.08217013,0.0761259,0.18822825,0.0718007,-0.102481484,0.12524284,-0.020907843,-0.03465853,0.05266322,-0.38089544,0.22896793,0.35636202,0.042649444,-0.2792989,0.14955488,-0.26097307,0.12863424},{0.0030320978,0.21952324,-0.18912819,0.11745239,0.25364092,0.07026234,0.014639402,0.12399588,0.044709615,0.14403088,0.050544173,0.07458957,0.052909087,0.1115237,0.087486036,0.00078227604,0.0011800413,0.037831035,-0.3001021,0.20546658,0.40693733,0.3090805,-0.027825028,0.20917107,-0.24076965,0.120357715},{-0.12618092,0.10055113,-0.006995059,0.117785305,0.13598946,-0.082324944,-0.1312679,-0.035791956,0.17792153,0.14028466,-0.10380368,-0.07825711,0.032813884,0.071026735,0.14648318,-0.07324312,-0.12055678,-0.11812568,0.03680605,0.3021958,0.07852823,0.011923113,0.115823805,0.0040273964,0.46833134,-0.12410068},{0.3199712,0.1423204,-0.37259746,-0.041621864,-0.014956143,0.015654536,-0.01920653,-0.049039874,0.045040548,-0.0049417554,0.14468904,0.08483297,-0.054788988,0.028071119,0.0149826165,-0.11025081,-0.07716625,-0.019246802,0.013158208,0.057638694,-0.32115716,0.04731734,-0.23185343,0.32413504,-0.3448864,-0.003633133},{-0.05755888,0.1458436,0.08281046,-0.062467765,-0.017312935,-0.018687388,0.013768803,0.13145418,-0.052540477,0.037978187,0.10197077,0.34041408,0.01852833,0.1672732,0.0827767,0.031569142,0.04099493,-0.025588594,-0.16234802,-0.20434153,0.21659736,0.14284427,-0.4415421,-0.09386828,0.027423207,-0.4208579},{-0.34816307,-0.44216263,-0.017267955,0.05612784,0.19352184,-0.07822163,-0.10002928,-0.07912401,-0.0007015154,0.23862402,0.03321461,-0.10012236,0.06980753,0.078079715,0.24437943,-0.02577995,-0.0018227578,-0.04803817,0.10954894,-0.00031763324,-0.08551012,-0.0009446456,-0.12006876,0.047784828,0.0104158735,0.085417904},{0.28258035,-0.5765294,-0.24859133,0.07276032,-0.10799613,-0.025950631,0.004301561,0.100542404,-0.17230134,0.046838865,0.075988606,-0.054512218,-0.050881896,-0.10370768,0.059797037,-0.019695794,0.022087302,-0.045690898,-0.04867038,-0.13796769,-0.13267726,0.19645457,-0.12583923,-0.043701705,0.020264462,-0.09412431},{0.20898822,0.023627697,0.001326764,-0.032284122,0.051655237,-0.13120268,-0.10051593,0.029312287,0.06404522,-0.06218081,0.10639463,0.047542993,-0.0028513607,0.025428977,-0.0019031592,-0.020396875,-0.03210863,-0.06407059,0.43185017,-0.21634445,0.2581439,-0.25852677,0.0064903335,-0.21340382,0.28478745,-0.15724722},{-0.15193057,-0.10842377,-0.3161971,0.03938747,-0.044169135,0.045235097,0.007859272,0.115719624,-0.16441248,-0.054106377,0.0914697,0.09501307,0.0067022443,-0.140116,-0.105406485,-0.04193584,0.014268095,0.075641066,-0.11369763,0.04220714,0.14347965,-0.12531795,0.5528341,0.05269525,0.30515805,-0.5371582},{0.5431078,-0.06355743,0.30373544,-0.0055807643,-0.01103992,-0.020688102,0.13686043,-0.15714808,-0.0003855226,-0.24427389,-0.02220063,-0.25417805,0.22030522,0.00235082,0.098118946,-0.03261857,-0.03658518,0.044447035,-0.11144988,-0.05904062,-0.14397015,0.074872725,0.07183318,0.15803702,0.059170913,0.106077544},{-0.2054975,-0.05011737,-0.124966085,-0.15190957,-0.14160721,0.10249646,0.13314447,-0.022243328,0.2906504,0.070621625,-0.182591,0.0014232793,0.044205785,0.20571104,0.03670909,-0.07380709,0.11450279,0.13760914,0.32698536,0.013188222,0.15173669,-0.5388391,0.030901931,-0.14262907,-0.31623542,-0.015354513},{0.2603296,0.2599369,-0.018130198,-0.035063438,-0.087621026,0.008528194,-0.11582914,-0.046912026,-0.14243297,-0.12061355,0.19457622,0.22410792,0.08836881,-0.037597533,-0.0008748682,-0.016899105,-0.03743179,0.1092168,-0.0075984504,-0.103988856,-0.27528188,0.012303809,-0.014033856,0.1709543,0.19705679,-0.25446853},{0.07617235,-0.1374182,-0.17228569,0.10071878,0.034719307,-0.033020873,0.038732782,0.18836056,0.09944354,-0.14742015,-0.10137649,0.09789875,-0.09162503,-0.007916219,0.1303872,0.00094990653,0.009621317,0.04853663,0.23348165,0.28402647,-0.2420166,-0.104582004,0.027472533,0.16329134,0.16138941,0.17540179},{0.13646248,-0.046537288,0.1111377,-0.12668887,-0.01490171,-0.1268956,-0.12803872,-0.040903077,-0.21408746,-0.097756974,0.23650222,-0.10099409,-0.16548593,0.08081386,0.16577417,0.043749448,0.001696286,-0.14745915,0.15226503,0.12456806,0.2670022,0.05330698,-0.0787478,-0.10216613,0.07458013,0.022735143},{-0.5065607,-0.30738205,0.13210738,0.043683253,-0.007112632,-0.03695156,-0.0048208362,0.09650215,0.17228469,0.070686646,-0.22269367,0.010205063,-0.008416823,-0.031354193,0.20439513,0.051894274,0.032511607,-0.03157844,-0.21393669,-0.16861497,0.07662871,0.07980788,-0.21058474,-0.10369546,-0.09341217,-0.11969632},{-0.2731937,0.3263949,0.13405253,0.041754723,0.33771905,-0.1621104,-0.31205,0.17788127,0.15103528,0.19789554,-0.0565153,-0.03158829,-0.038092967,-0.02402126,0.025248136,0.03484756,-0.019262638,-0.0425899,-0.28865603,-0.06199772,-0.045941293,-0.06764223,0.05771119,-0.039196882,-0.053485703,-0.20699157},{0.34227967,-0.04961147,-0.08283515,0.30541843,-0.099184036,0.12488416,-0.19690403,0.1858334,-0.095845096,-0.18396659,0.058088005,0.06005041,0.17047603,0.13994156,0.12603639,0.018053215,0.012977181,-0.03468714,0.1590846,0.017916126,0.09807056,0.14422114,-0.11377564,0.04507786,-0.12843773,0.15073685},{-0.082937695,0.01698254,0.07507922,0.19460641,-0.08573661,-0.18184827,-0.17186701,0.03152166,0.14789206,0.002061881,-0.022837456,0.17950433,-0.05072184,-0.036416125,-0.058473814,0.02504651,0.021940822,0.0507046,0.07159092,-0.5575082,-0.16209982,-0.3307543,0.38815764,-0.5121538,0.07954599,-0.1250588},{0.021986663,0.20887472,-0.06620599,-0.016833778,-0.06819691,-0.014069359,-0.005279366,-0.009371942,0.16979904,-0.16573018,-0.06315902,-0.030583017,-0.030587403,0.124951504,0.028254226,-0.054973796,0.031269804,-0.16149573,0.24770111,-0.32187277,-0.19964936,0.106679514,0.09152629,-0.15817772,0.033449084,-0.5892592},{0.03472091,0.10450417,-0.13667016,0.020308228,-0.12333925,0.057339925,-0.013905771,0.16392829,-0.0792713,-0.098560415,-0.006053881,0.02209679,-0.06503716,-0.038683195,0.038993403,0.0014846728,-0.045710817,-0.029563516,-0.1753118,-0.31508717,0.23252718,-0.11555667,0.22853355,-0.032446887,0.022931933,0.085705265},{0.07408231,0.050702993,-0.07093911,0.023307692,-0.20397103,0.062699735,0.17572364,-0.107441336,-0.13536714,-0.16089146,-0.15859097,0.14032236,-0.08820241,0.017007533,-0.18156834,0.012984234,-0.006751297,0.06529853,-0.08492042,-0.13519874,-0.08785475,0.1449523,-0.23374625,-0.36876708,-0.013018932,-0.28319722},{0.53433686,0.52424455,0.33780795,-0.034433883,-0.0494841,0.03478956,-0.016015906,0.08186713,0.2538376,-0.17593883,-0.09328368,0.16309479,0.16549675,0.18199177,0.19126847,0.0142278625,0.018899532,-0.011988755,-0.16567342,0.06630466,-0.004534022,0.00017765303,-0.20524564,-0.2028005,-0.24429055,-0.08796242},{-0.0774986,0.08158915,-0.023512628,-0.05529498,0.2407582,-0.123633,-0.30978554,0.04717244,0.12970562,0.046085794,-0.07768514,-0.2600367,-0.11354155,0.12573485,0.09157856,-0.058520436,-0.077030614,-0.14571717,0.018114282,0.16584995,-0.082489565,0.053163018,0.011367548,-0.13962956,-0.21574259,0.016391166},{-0.23456834,0.105085775,0.30795708,0.06855786,-0.12886272,-0.18628752,-0.10632404,0.008956306,0.014139527,0.060445536,-0.21348566,0.049976952,-0.10697076,-0.00096479495,-0.027553134,-0.007130991,-0.018589707,-0.002443738,-0.21807979,0.39284584,-0.12729836,0.20667152,-0.39541784,0.32977307,-0.06276794,0.3824648},{-0.3402128,0.081581414,0.28036326,-0.021282252,-0.25606212,-0.059379756,0.20854805,-0.07921963,-0.12520738,0.20242216,-0.1202035,0.057015177,0.019334083,-0.09045412,0.23325709,0.16813654,-0.040176686,-0.02638279,-0.18190406,-0.15244126,-0.021302136,-0.06994957,-0.19122061,0.053273957,0.06864649,0.08016583},{-0.02705873,-0.234625,0.12987107,0.03260031,-0.1424639,0.18836774,0.39506936,-0.009798056,0.0048039993,-0.0562156,0.0083871195,-0.026760707,-0.071294926,0.09018693,0.07987363,0.027118005,0.0026576351,0.14457004,-0.090162784,-0.07555322,-0.1440037,-0.08558409,-0.066847086,0.04791038,-0.046328846,-0.32353583},{-0.14512353,-0.033261746,-0.1682505,-0.13161825,0.06822466,0.096451566,-0.19546254,0.007218794,0.23265745,-0.008269383,0.12406877,-0.010215717,-0.10807171,-0.08066249,-0.13193545,-0.024953885,0.06820554,0.012751226,-0.103425466,0.42228752,0.4086043,-0.031139847,-0.06239882,-0.07120803,-0.3572108,-0.0143935345},{-0.17560814,0.30313373,0.0630985,0.09541656,0.16156097,0.10396213,-0.079327665,0.017004661,-0.01929689,-0.15743409,-0.10717034,0.11916865,-0.0883392,0.2355533,-0.023080226,0.054458648,-0.01997423,-0.031850137,-0.12146863,0.06306897,0.21150859,-0.19286005,0.143039,0.080945514,0.16232143,0.30909768},{0.06194331,0.21068484,0.15110782,-0.07282516,0.17607884,-0.059830524,-0.04706182,-0.057896018,-0.092384905,0.04974796,0.11916193,-0.05266047,-0.0946544,-0.025423693,-0.059536967,0.040359695,-0.047569368,0.045705844,0.058872364,-0.10886773,0.2817655,0.22514102,0.47625342,-0.085290946,0.16909982,-0.04321611},{0.12352426,-0.10115612,-0.06579574,0.02525595,-0.018420437,-0.12562402,0.12285226,0.12561277,0.06035714,0.037597317,0.07981875,0.09447303,0.020928465,-0.0350903,-0.08366212,0.07253372,-0.009053459,-0.0827072,0.029857768,-0.44812804,-0.056133848,-0.22625144,-0.08303735,-0.21752226,-0.3786556,0.6153696},{0.13073847,-0.013644362,-0.054886546,0.025054919,-0.06287494,0.042245943,-0.016651494,0.21175522,-0.073789366,-0.29623687,-0.039612778,0.10265792,0.09638286,0.042521827,-0.047837403,0.019885957,-0.04932753,-0.017753579,0.05119203,-0.12507045,0.123004965,0.0029447374,0.25375247,0.014356646,0.30426326,0.14057714},{0.24814141,0.034925114,0.1755938,-0.23508579,-0.07460944,0.09934227,-0.055766333,-0.06550701,0.25351173,-0.20493627,-0.07374828,-0.23659074,0.015279191,0.12960371,0.23867214,-0.17742093,0.076287836,0.050223254,0.07334789,0.09637581,0.05651159,0.26109833,0.042429548,-0.07956477,-0.018325333,-0.0563064},{-0.073347345,0.07631227,0.032884687,-0.153428,0.04483809,-0.04018976,0.11541773,-0.046622053,-0.21260092,-0.15577336,-0.16137394,-0.116725355,-0.006381478,-0.28322417,-0.03583032,-0.12642553,0.06594251,0.02035535,-0.18208125,0.17507987,-0.18843177,0.22482584,-0.013297858,-0.19094442,-0.46500626,0.1274549},{-0.1846203,0.01400851,-0.097481385,0.0016945136,-0.07947587,0.12505822,-0.0902585,-0.0030700557,0.09093777,-0.07310608,0.0016402163,0.12858807,0.019316735,-0.06388292,-0.0070722005,0.026995443,0.01800648,-0.022676218,-0.6538425,-0.2751458,0.130317,0.31902257,0.16987449,0.36180866,0.18344638,0.3325629},{-0.057778448,0.02468234,-0.50790846,0.050135616,-0.049220327,0.082579724,0.04038887,0.070567586,-0.023505792,-0.010215628,-0.06680432,0.052408256,-0.076454185,-0.1332869,-0.12373672,0.030155195,-0.010787883,0.04468379,-0.029743193,-0.07156607,0.12237059,-0.16633087,-0.14326306,0.3100785,-0.12477975,-0.12839289},{0.09640886,0.13541344,0.043597326,-0.055863474,0.026447987,0.00824148,0.07377422,0.028061392,0.16010204,-0.025154777,-0.044469025,0.19392891,-0.1117807,-0.046387244,-0.010011856,0.0008211802,0.17372094,-0.11251475,0.0050936895,-0.054233488,-0.050831817,-0.028075907,-0.12186349,0.25885338,0.27293763,-0.103591084}};
static const float layer_1_weight[256][256] = {{-0.15904081,0.0065568537,-0.07104588,0.028636064,-0.16799831,0.059097014,0.007888739,-0.16208762,0.104349576,-0.16407594,0.15623151,-0.054023616,0.13070479,0.0063907006,0.0102847405,-0.24896747,-0.022766829,0.048378028,0.18740107,-0.12605485,0.008789478,0.033092264,-0.0951279,0.035469417,0.034296386,-0.09470629,0.03343568,0.026667072,-0.012947662,-0.00622031,0.14314975,0.036294352,-0.10906755,-0.0021289547,0.15263762,0.020345172,-0.034976896,-0.046537068,-0.15857774,-0.048697148,-0.053665724,0.09180389,0.09240448,-0.105977446,-0.17465554,0.22914419,-0.09586657,0.08323424,-0.027643168,0.15343638,0.0022332727,0.0332859,0.16076303,-0.07357699,0.012552527,0.027299635,0.19773994,0.05843076,-0.11309762,-0.047516286,-0.08921826,-0.1320794,-0.058537338,0.103456676,-0.09238459,0.11164421,-0.16259597,-0.05265724,-0.0043484713,-0.05753636,-0.18183075,0.00672747,-0.11067485,-0.11631747,-0.00659157,0.026989046,-0.10162337,-0.008593571,0.17876527,-0.062026132,-0.14394192,0.034412645,0.015870767,0.24197805,-0.073998325,-0.22534776,0.03655776,-0.13647953,0.20530376,0.04907913,-0.17399584,-0.00015534872,-0.05864134,-0.040649123,0.046672605,0.043580618,-0.14697197,0.2066571,-0.09657977,0.027116423,0.068276316,-0.00022256759,0.1475272,0.18178096,0.13126102,0.19960147,-0.083825044,0.1867227,-0.11899018,-0.036697656,-0.15357882,0.19236313,0.0020212377,-0.055597767,-0.1863172,-0.0035525628,0.24297202,0.11156913,-0.20732403,0.04718645,0.08816513,0.017278511,-0.20324245,0.08181197,-0.042951275,-0.054685995,0.08300358,-0.0071053077,-0.10996803,0.070402294,-0.07170755,-0.0210551,0.14039972,0.17341696,-0.043630842,-0.08870473,0.09921907,0.026966108,-0.15113787,-0.10814999,-0.17296395,0.044050753,-0.008137538,0.058860473,0.033110157,-0.12753718,0.14891317,0.027539484,0.21730067,0.11917231,0.048278887,-0.054005414,-0.058538128,0.13437353,0.0046038777,0.10591932,-0.12735026,-0.0036781097,-0.08725425,-0.124331765,0.02752432,-0.014209937,-0.006023998,0.0054587875,0.07021349,-0.053521678,0.08563334,-0.006874162,0.0915429,0.092490986,-0.110014014,0.009219804,-0.13663769,-0.044054676,0.10404868,-0.11801654,-0.04322267,-0.015522844,-0.12809148,0.04926835,-0.063417435,-0.015908428,0.12436356,0.060268525,-0.09874558,0.04263452,-0.027172714,0.0056875884,0.12549098,0.0786978,0.09361518,-0.16020764,-0.003002997,0.12385008,-0.011784068,-0.14830154,0.07337326,0.056058444,-0.08609325,-0.02541138,0.04012221,0.09300886,0.015199287,-0.054798283,-0.1499413,-0.17728345,-0.025380837,-0.0044716634,-0.070878446,-0.09828424,0.072251685,0.08950588,0.1159539,0.13475208,-0.034416012,-0.17075792,-0.12555213,0.0657512,0.16536225,0.10153547,-0.07492097,-0.03878155,0.025463488,0.14580968,0.00067432993,-0.06134256,0.026095537,-0.04689974,-0.082157254,0.0147433365,-0.019977706,0.054002475,0.13119875,0.068469785,-0.046297185,0.018114457,-0.060668666,-0.08111194,-0.08874555,0.23781282,-0.116353534,0.06526204,-0.036389332,0.04480705,-0.066571325,-0.018133119,0.077682965,-0.01936418,-0.02244687,-0.122047655,0.021276096,0.073005326,0.17021292,0.117104426,-0.054389976,0.03428554},{-0.06615741,-0.09840312,-0.20443654,-0.02781988,-0.12097543,-0.23067568,-0.022050424,-0.1648565,0.105342336,-0.009449457,-0.00605512,0.08264861,0.09340317,0.08281241,-0.035001703,0.073889874,-0.11122839,-0.14033271,0.120330766,-0.070481524,0.21587083,0.14332089,0.17294313,0.10155087,0.12344533,0.22698468,-0.04322196,-0.0069034947,0.010528017,-0.015850114,-0.10706911,0.13617612,0.033096932,-0.008044156,0.08884127,-0.027383884,-0.09657034,-0.016442074,-0.047173582,0.21822098,-0.1703328,-0.23012902,-0.32242867,0.061265845,-0.17695276,-0.30910018,0.11978667,0.086719096,-0.17333199,0.10258838,-0.056414146,0.018479105,-0.12717633,-4.46861e-05,-0.149426,-0.030675687,0.14974578,-0.064518794,0.11757361,-0.06821942,-0.11169325,-0.06894271,-0.14415666,-0.18462874,-0.23387124,-0.22715889,0.12654711,0.0449469,-0.017528394,-0.3485153,0.020577786,-0.19975686,-0.031041292,-0.033592988,0.0036922416,0.034707338,0.104550496,-0.004332655,0.024944754,-0.18085968,-0.002575534,0.067543566,-0.08055159,-0.22558293,-0.041472465,-0.110009566,0.0069711613,0.15266432,-0.026370047,-0.27283943,0.023106746,0.099206686,-0.050184496,-0.049937464,0.16503823,-0.033050835,-0.18744978,0.011948226,-0.15306894,-0.12458767,0.15350749,-0.003142314,0.096151866,-0.06295327,-0.18712693,0.01854008,0.113415785,0.15702182,-0.0510394,-0.07956051,-0.09659851,-0.0066081895,-0.060376808,0.11673071,0.017846046,0.13530709,-0.021656552,0.08641335,0.11257751,0.102409534,0.02183582,0.2094349,-0.021161575,0.11943116,0.08503841,-0.26053843,-0.0039716903,0.12893422,0.0019119338,-0.141983,0.151477,0.1613334,0.06476017,-0.09965236,-0.10368937,0.047559608,0.20328641,-0.07939579,0.05823572,0.009169945,0.019057833,0.0824048,-0.0067367605,-0.01603745,0.011472487,-0.24079013,0.079215094,0.23956008,0.053779803,-0.08832003,-0.034861907,-0.07547058,-0.113743976,-0.0580876,0.11356984,0.07042636,0.07944204,-0.0624799,-0.05883602,-0.056101587,0.058431175,-0.025714012,0.08153102,-0.10191129,-0.120578215,-0.16920325,0.083910726,0.036024198,-0.10788527,-0.0059040557,0.030614216,-0.12539525,0.07416039,-0.16785274,0.057268057,-0.03381138,0.060312837,0.095417775,0.063637376,0.024680411,-0.12282433,0.113034844,-0.051246405,-0.08676472,0.11544829,-0.051895875,0.085399434,0.09265323,-0.07118891,-0.07644434,0.05306542,-0.0004153987,0.04461636,0.15401405,-0.133096,0.010910806,0.03444035,0.033547807,-0.16143307,0.12307422,-0.034269203,0.016793747,-0.01029347,-0.02011356,0.05430505,0.012071235,-0.38379177,-0.1283437,0.07184077,-0.0182074,0.08168994,-0.17023587,-0.009729502,0.022583516,-0.13612244,-0.052594725,-0.080926426,0.05324726,0.09530752,0.043444477,-0.15558808,0.08900591,0.019049402,0.18360718,0.13715522,-0.025108108,-0.10833578,-0.05483391,0.039357096,-0.15080056,0.027335474,0.12004493,-0.044197842,-0.09989241,-0.09789335,0.012172027,-0.004611472,0.06751154,0.109768815,0.28649876,0.20448737,0.093749516,0.100871354,-0.10312703,-0.075716466,-0.078888305,-0.077670805,0.044387754,-0.05067932,-0.09783325,-0.06610155,-0.09265024,0.06259521,0.13403906,0.012397535,-0.01432629},{0.057798557,-0.080179684,0.15321614,0.03455919,-0.037994597,0.11242178,0.18062441,-0.07634684,-0.11098301,-0.038032997,0.07929195,-0.19019304,0.08638344,0.045561913,-0.19751517,-0.09772321,0.086204596,-0.11185023,0.03672701,-0.13381696,-0.049170326,-0.03617298,-0.13447641,0.029598914,0.102548346,0.050474346,0.03995682,-0.103874296,-0.0020629617,-0.16959228,-0.041981123,0.011318684,-0.050614357,0.14259617,0.0027006506,-0.13423592,-0.060464624,-0.008029645,0.10142181,0.06562361,-0.008944802,-0.02935051,0.048207402,-0.0302997,0.05848545,-0.11536199,0.07273099,-0.005230082,-0.22025238,-0.017943287,0.050930377,-0.110485524,-0.043519776,-0.013383452,-0.08323467,0.06084259,0.10495532,0.039127246,0.19208506,-0.1338217,-0.05011413,0.07451783,0.14148986,-0.008488758,0.03565599,0.009765871,0.11328659,-0.0012737549,0.07042514,-0.06783742,-0.14839372,0.02426936,0.1140381,0.06695668,0.060762662,-0.0352547,-0.13982703,0.09697214,-0.023918146,-0.00832851,0.06652894,0.036420017,0.16507493,0.010031971,0.09394436,0.018398458,-0.08533906,-0.11464741,-0.052256797,-0.13797478,0.13134636,-0.119707145,-0.00020979118,-0.14526112,0.032622226,0.057786234,0.03390706,-0.011409976,-0.046268057,-0.17246892,0.039322946,-0.08639293,0.11803496,-0.09696582,0.07957503,0.29399696,-0.045060895,0.043157477,-0.084172815,0.27943763,0.008201404,-0.04701322,0.06409663,0.037686285,0.113862455,0.10420476,0.051219504,-0.03998625,0.080611445,-0.030929001,0.101627834,0.06627256,0.012159077,0.071611404,-0.05327114,-0.07148626,-0.066580884,-0.10318045,-0.09310978,0.121539645,0.13484868,0.045207784,-0.16869453,-0.07355113,0.14766917,-0.03588511,0.16586292,-0.10672565,0.005741037,-0.061777107,-0.026341135,-0.060600944,-0.08761027,-0.11412592,0.065651864,-0.10672116,0.14490834,-0.044329263,-0.006287206,-0.19166778,-0.056490105,0.040515598,0.16880146,-0.04885244,-0.15328261,-0.3587054,0.16288565,0.02507686,0.08855296,-0.021467492,-0.09757046,0.11169976,0.13080308,-0.05725777,-0.10000669,0.029348658,-0.091925696,0.107987106,-0.16684604,-0.07162475,-0.012899915,-0.24702337,-0.016108057,0.031284645,-0.102530316,-0.0096111465,0.123940125,-0.06523165,0.13830286,-0.05074396,-0.11556104,0.061904613,-0.08197206,-0.11547231,-0.06959953,-0.05891267,0.16080524,0.08316958,-0.0017348549,-0.0092303045,-0.078765616,0.11491523,-0.16921644,0.10151059,0.07011732,-0.13782972,-0.05596837,-0.06262903,-0.16395073,-0.0463929,-0.041584503,0.053855646,0.17079367,-0.004049592,-0.03925911,0.05002627,-0.08091965,-0.08919206,-0.027377153,-0.055198003,-0.00540632,-0.00031519379,0.018712262,0.0010125056,-0.045805566,0.07063595,0.089519925,-0.2741513,0.18878715,0.016607,-0.074132085,-0.009935947,-0.033902347,-0.08840959,0.06496893,-0.18406451,-0.13799621,0.017947977,-0.022439804,-0.48614648,-0.13178529,-0.1294328,0.016684867,0.08599371,-0.16656876,-0.2828326,-0.23169732,0.02932861,-0.20094557,0.09611289,-0.0860469,0.09887446,0.07683891,0.05670197,-0.12734124,-0.0024278744,-0.047251724,0.0047344267,0.17052706,0.027271906,-0.10482117,-0.089450754,-0.020973237,-0.06846481,-0.04604987,-0.028084258},{-0.014844526,-0.028763274,-0.16692264,-0.25322062,0.0054320404,-0.0072366125,0.11156687,-0.04136784,0.06474103,0.108952366,-0.05017265,-0.02012842,0.027995586,0.09644679,0.060819365,0.0052247355,0.16514899,0.05225665,-0.010768578,0.08428823,-0.14732201,0.14833665,0.12342881,0.015770132,0.094418086,0.044421665,-0.01132493,-0.04562698,0.048447568,0.16185285,0.06551018,0.06930135,0.108900994,-0.011578372,0.06665572,-0.15763041,0.07740398,-0.11035533,-0.043831374,-0.14539167,0.0397853,0.1357665,-0.07780729,0.036297567,-0.03407397,0.04204206,-0.103589766,0.09078596,-0.038335856,0.10073194,-0.047456853,-0.11708011,-0.10693997,0.094661206,0.07656362,-0.12428458,-0.0035338309,-0.06616146,-0.11001377,0.037760984,0.222252,-0.22795762,-0.025786923,0.13899627,-0.08465911,-0.14524959,0.11246056,-0.044076797,0.17999876,0.09005771,-0.060202222,-0.105464585,0.0553024,-0.057841353,0.09104679,-0.024000268,0.08987369,-0.15389885,0.19043995,-0.06497342,0.07945463,0.06739569,0.011023321,-0.042148985,0.12105161,-0.13112034,-0.091761544,0.0779734,0.03555752,0.08745664,-0.076426566,0.0060822065,0.035328027,-0.09948272,-0.19718984,0.058530957,-0.08929205,-0.12989165,-0.09757127,0.06371148,0.07306473,0.00078121957,0.06807586,0.06413544,0.0068443525,0.0267995,-0.07839146,-0.006097153,-0.104840584,0.11554531,-0.035306472,-0.11822713,-0.0028465255,-0.092981465,-0.10296852,-0.05138953,0.02611567,0.05424954,-0.011717171,0.21930745,0.012290575,0.026146915,0.066176,-0.13259321,0.11653323,0.21278334,-0.103447095,0.13925567,-0.12663725,0.06679068,0.0034047528,0.11435924,-0.1624242,-0.096859656,-0.0870322,-0.09923832,0.24339923,-0.1676283,0.17330198,0.10277118,-0.006404977,-0.058558717,0.10951558,-0.15730073,0.15599436,0.028292578,0.01125498,0.033322915,-0.16362529,-0.016700767,0.047574237,-0.059266467,-0.14003693,-0.009469736,-0.16377787,0.0018090989,-0.0023784398,-0.017663538,0.022499597,-0.0076868758,-0.11570691,0.15452248,-0.016097054,0.072266705,-0.061763335,0.070780076,0.06454637,0.03350807,-0.039443575,-0.059684135,0.054163627,0.01226233,0.12146141,-0.038036987,-0.23776983,-0.020358212,-0.084970586,-0.074705206,-0.06047395,0.042443294,-0.023848904,-0.09780223,0.016221708,-0.04833144,0.114551306,-0.06783488,0.02643549,0.028575975,0.09579638,-0.09602971,-0.03693803,-0.06849835,0.01720616,0.020562429,0.026183002,0.02520608,0.16899407,0.13396104,0.012733908,0.042333066,-0.0071650986,-0.14131323,0.1892808,0.17086653,-0.01720348,0.13646883,0.08903964,-0.08872984,-0.026088635,-0.11927366,-0.06032296,0.101673454,-0.33260742,-0.04233229,-0.13109738,-0.04203961,0.041252475,-0.049680762,-0.06800673,-0.08826294,-0.03790949,-0.115160674,-0.12990446,-0.123729505,-0.07487279,0.10324564,0.113812186,0.016495682,0.012499586,0.0064034928,-0.011423449,-0.03463955,-0.031456843,-0.11132837,0.13060436,0.10531219,-0.008199067,-0.14312951,-0.10858505,0.0068984153,-0.069715805,0.17245851,0.06931123,0.08610261,0.029574044,-0.097742006,-0.05176153,0.12360522,-0.11715399,-0.19200368,0.14360403,-0.10246022,-0.06584939,-0.20894724,0.010153578,-0.095107555},{0.08812274,-0.06453576,0.19106086,-0.007535378,-0.00087758113,-0.049073845,-0.0046242895,0.008267823,-4.949097e-06,0.026441077,-0.10963323,0.057024162,-0.038109675,0.008355135,0.20699678,0.16858217,-0.08578948,-0.18479504,-0.0014858381,0.016873123,-0.105089515,-0.041595813,0.04137213,-0.015804334,0.087668836,0.06478907,0.09510606,0.1367011,-0.042678934,0.010254952,-0.027659155,0.21043092,0.14594132,0.06629061,-0.02437175,0.10385845,0.118105695,-0.29380357,-0.19446395,-0.17936753,0.1152748,0.14204794,-0.049546603,-0.06735254,-0.07653151,-0.043038268,0.14045097,-0.11824557,0.15785544,-0.25426725,-0.0052065654,-0.04037032,-0.07730732,0.039459344,-0.04829126,-0.07104054,0.20047645,0.09315795,0.018342074,0.08184447,0.091930114,-0.06547842,0.0057205143,-0.110103056,-0.0011498219,0.05259437,0.052674815,0.051503073,0.10709445,0.013539052,0.13540894,-0.061543133,-0.15752724,0.18160556,0.008731237,-0.0019122215,0.014627023,0.06749854,0.030026058,-0.00816511,-0.07078076,-0.03268563,0.009831397,-0.09691948,-0.12956372,0.18803054,-0.17519855,-0.05768542,0.080785766,0.08243067,-0.2179214,-0.067432545,0.068029165,-0.00039284676,-0.15388134,-0.050570022,0.16690676,0.10962968,0.07840135,0.09650259,0.12941921,-0.116437055,0.02225959,-0.03731643,-0.078723855,-0.02429688,-0.04510708,0.019185646,0.21159439,-0.19876449,0.061258767,0.12961417,0.022324478,0.008828125,0.06072465,-0.03537449,-0.09915505,0.08230158,-0.105526,-0.06295931,-0.052212678,-0.075455755,-0.056380857,-0.051776703,-0.06822405,0.10436163,0.1088775,-0.0309609,-0.07169107,-0.16323298,0.03184572,0.030332442,0.0040321117,0.018775268,-0.0039602867,0.06314196,0.000110318855,-0.051864713,0.08223528,0.031109666,-0.04527199,-0.017843181,-0.05614382,-0.1171066,0.12057287,-0.084505625,-0.07533358,0.091471985,0.046138853,-0.19281434,0.11857257,0.010749766,0.08220822,-0.12659994,-0.11257992,-0.10673311,-0.005046716,-0.09362048,-0.08741481,0.16347495,-0.0026973116,0.020559268,-0.20659387,-0.13479887,-0.037027184,-0.15736131,0.028282044,-0.0016070438,-0.25899452,-0.10307092,0.029566567,0.057463583,0.04263577,-0.17831051,0.015604598,0.07589949,-0.23157167,-0.07823782,0.2644706,0.050085817,-0.14074036,0.047269918,0.19176294,0.0861921,-0.07597048,-0.16293491,0.049170934,0.048406642,0.044460543,-0.10330148,0.120404944,0.06955656,-0.13461155,0.08369976,-0.039487213,-0.18062025,0.092064634,0.1120129,-0.10053755,-0.04718665,-0.16231309,0.086101465,0.038691606,-0.11501641,-0.10135956,0.03717807,0.123231344,0.019736521,-0.051455956,-0.19814119,-0.021093754,-0.019265091,0.14287022,-0.004073578,0.011432124,-0.022995181,-0.10007033,-0.04551246,-0.076940335,-0.036326446,-0.06193201,0.17098285,-0.03769242,0.20890087,-0.026479468,-0.022443768,0.17253779,0.055462554,-0.048016258,0.06800104,0.02258591,-0.11653224,-0.017101517,-0.04115741,0.16075231,-0.19973215,-0.028696975,-0.10703627,-0.084705055,0.084162734,-0.013498784,-0.15069176,-0.035095043,-0.010943641,0.09751411,-0.1429779,0.101490155,-0.03585576,0.071329296,0.012235916,0.11295643,0.08060008,-0.07162713,-0.16441411,0.08024953,-0.1375136},{-0.0903973,0.05591115,0.03919579,-0.046444796,0.0699317,0.15484035,-0.1176052,0.060636055,0.015659269,-0.034678403,-0.0533399,-0.081274055,0.020802258,0.03698185,-0.1159382,0.007178852,-0.066712886,0.18765388,0.037335247,-0.015121481,-0.10978723,-0.048732925,0.02579103,0.10231048,-0.080538794,-0.17716943,-0.08993246,-0.0019121242,-0.08588687,0.0027239188,-0.10037457,0.041272365,0.022630634,-0.113524765,-0.19766673,-0.14285168,-0.12187269,-0.15712279,0.11807708,-0.010307796,-0.07413055,0.09836697,-0.12449133,-0.08095709,0.104966685,-0.088721596,0.031777874,0.051677097,-0.34731498,-0.020429607,0.045596153,0.039642844,-0.036462627,-0.029100621,-0.056635946,-0.15542233,0.087587126,0.15794645,-0.12961794,-0.028730564,-0.085716166,0.081695974,0.13399288,-0.016794443,0.09831445,0.03130378,0.08402935,0.032356575,0.16529472,0.15481432,0.037353605,-0.115596,0.005844121,0.06494138,-0.02699828,0.16156627,-0.012351583,-0.02941164,0.1917262,-0.018825516,-0.015813451,-0.07190611,0.10406988,-0.02982671,0.2044948,-0.0063831434,0.16489452,-0.13856238,-0.027700445,-0.008894496,0.097668,0.052354798,-0.05714537,0.040620975,-0.06591512,0.0057309517,0.052370034,-0.122320406,0.18275544,-0.006842555,-0.011588335,-0.06323123,-0.08972369,-0.08206693,0.04992219,-0.020673998,0.029310582,-0.2937634,0.17058036,-0.011911698,-0.08936673,0.096622616,-0.04192843,0.09114601,-0.0029958722,0.028887969,0.056728188,0.010399398,-0.259793,0.074606605,0.02571874,0.0496058,0.041109197,0.059606433,-0.03715244,0.024626225,0.020557415,0.023879733,0.05483508,-0.26702937,-0.055820882,0.06950681,0.07906278,-0.022028727,-0.07480256,-0.06426205,0.0044350317,-0.021295879,-0.08619191,-0.12411974,-0.0035962677,-0.15363474,0.24054626,0.1891171,-0.0471005,-0.10446061,0.032936916,-0.10714854,-0.12495141,0.10699445,0.066797264,-0.11789804,0.0141282575,0.13040118,0.12626038,0.10244477,0.0970639,-0.014206434,-0.036346048,-0.06973637,-0.0786403,-0.042665668,-0.035789374,-0.012738486,-0.17571022,0.19454157,-0.026492758,0.2568193,-0.09906196,-0.051302586,-0.111211665,-0.14385067,0.09627667,0.1093464,0.096181095,0.07843289,0.12870134,0.08313205,0.13020825,0.052378356,-0.044928573,0.059832036,0.003888131,-0.09767464,-0.19789933,-0.047199987,-0.07778449,0.009302649,0.02544093,0.044143613,-0.028729713,0.06707151,-0.12185474,-0.13170618,-0.0034338979,-0.093438804,0.16963904,-0.04061887,0.081240326,0.083739355,-0.15971231,-0.10042072,-0.009279211,0.08411607,-0.011495085,0.030919544,0.03504289,0.012409967,-0.007288366,0.02105164,-0.04782329,0.119184814,0.21904029,-0.006608419,0.12111791,0.19111939,0.091377184,0.2355951,0.023739582,-0.09772248,-0.035491697,-0.08170969,0.06676939,-0.103546575,-0.017743276,-0.07738889,-0.14903292,0.08056222,-0.09495848,-0.100229934,0.00040726463,0.11913884,-0.058389183,-0.15217705,0.006613994,0.04097135,-0.092591666,-0.011687556,-0.037557874,0.052276567,-0.023788031,0.033919685,0.0495141,0.012555697,0.14028138,-0.072426826,-0.09559763,0.015488227,-0.087625265,0.094671935,-0.039412692,-0.04279275,0.01608805,0.08030805,0.01805175,0.015678868},{-0.11339061,-0.041031387,0.10533166,0.114058286,-0.037762064,0.10918176,0.13934991,-0.14398846,-0.019186703,-0.001040161,-0.037179288,-0.054234326,0.026431032,-0.14987925,0.13409877,-0.09636724,0.047966298,0.16005124,0.064315155,0.1722286,0.09855484,0.011466465,0.040777713,-0.014602231,-0.1325885,-0.024614792,-0.071954794,-0.15159842,-0.0058270553,0.08890942,0.08243335,-0.14107879,-0.049903046,-0.20110676,0.13051505,-0.1691685,-0.04269172,0.009271621,-0.0783954,-0.045818944,-0.08821081,0.14720675,0.03181365,-0.14704114,-0.08560205,-0.03359242,0.100046284,-0.10107974,0.048773326,0.07288193,-0.076562196,0.07836611,0.003675278,0.0003429345,-0.0072051943,0.009280175,-0.006089031,0.09240874,-0.019844381,0.03674816,0.108182766,0.22715682,-0.053858414,-0.17529646,0.05783364,-0.029675623,0.05870482,0.008886459,0.03681421,0.09648497,-0.030865213,-0.13311,-0.01749269,0.0109927105,0.0007814814,-0.06843978,0.13944305,0.1363256,-0.060441356,0.05625088,0.01852937,0.01960803,-0.041385163,0.080117725,-0.021508083,0.10035248,-0.039220642,0.29103625,-0.19844258,0.04402793,0.18582015,-0.008520403,-0.15868402,0.09903666,-0.0815247,-0.014675476,0.06302154,-0.09672624,0.0881962,0.030014573,0.14041993,0.05334068,-0.14529599,0.17784218,-0.097280085,-0.0141028995,-0.04367314,0.05508839,-0.015947388,-0.045813132,0.09068772,0.09043856,0.25775915,0.18180947,-0.01696757,-0.003957611,0.14288314,0.15675794,-0.019894585,-0.19118294,0.086864814,0.10906043,0.09213552,-0.084550634,-0.123581976,0.0014156193,0.035762567,0.035078067,0.037510812,0.08049289,0.024904795,-0.08030117,0.033915963,-0.017860893,-0.0034138418,-0.10840807,-0.107218355,0.018747676,0.093483426,-0.15102872,-0.09656892,-0.041890614,-0.1484515,-0.20569561,0.028748129,0.013576974,0.026308132,-0.13047291,-0.17396879,0.14363486,-0.049177803,-0.15984909,-0.011282548,-0.015920796,0.15375978,0.06656695,0.18782885,-0.13574713,-0.01961289,-0.19518058,0.21739458,-0.1831674,-0.09154649,-0.085771,-0.11671187,-0.1619186,0.22887477,0.034741193,-0.14075345,-0.0754048,0.02438322,-0.07822047,-0.15498137,0.05521451,-0.08576939,-0.0010597114,-0.12218528,0.075840205,-0.022687238,-0.08478077,0.14860575,0.068239965,0.18000585,0.12987237,-0.029188287,0.10671532,0.029827688,-0.026743457,-0.007411059,-0.12996557,-0.073096804,-0.22568779,-0.19030811,-0.070022605,-0.056153465,0.07578542,0.034651846,0.09101295,0.016786005,0.11112214,0.09517388,0.006455217,-0.025067251,0.071357794,-0.03821842,